<?xml version="1.0"?>
<opencv_storage>
<my_svm type_id="opencv-ml-svm">
  <svm_type>C_SVC</svm_type>
  <kernel><type>LINEAR</type></kernel>
  <C>1.</C>
  <term_criteria><epsilon>2.2204460492503131e-16</epsilon>
    <iterations>100</iterations></term_criteria>
  <var_all>128</var_all>
  <var_count>128</var_count>
  <class_count>10</class_count>
  <class_labels type_id="opencv-matrix">
    <rows>1</rows>
    <cols>10</cols>
    <dt>i</dt>
    <data>
      0 1 2 3 4 5 6 7 8 9</data></class_labels>
  <sv_total>45</sv_total>
  <support_vectors>
    <_>
      -4.84614432e-01 -1.51376620e-01 -1.50774449e-01 -5.27945697e-01
      -1.61201030e-01 5.20544708e-01 -5.14441282e-02 -1.41876802e-01
      -3.38813179e-19 1.46731157e-02 0. 0. 0. 0. 0. 0. -3.58831465e-01
      4.17083055e-02 -1.68133318e-01 -2.50217140e-01 9.68177691e-02
      3.03306401e-01 5.04145958e-02 -1.30501434e-01 0. -2.71111339e-01
      0. 0. 0. 0. 0. 0. -2.33048543e-01 2.34793171e-01 -1.85492337e-01
      2.75114272e-02 3.54836613e-01 8.60679597e-02 1.52273387e-01
      -1.19126081e-01 0. 5.78566134e-01 0. 0. 0. 0. 0. 0. 2.08322138e-01
      1.24387316e-01 -3.94776613e-02 2.53346771e-01 4.70772415e-01
      9.95261073e-02 -1.19331572e-02 -3.91563296e-01 0. -7.05988407e-02
      0. 0. 0. 0. 0. 0. 3.15007210e-01 -1.53320665e-02 5.53733408e-02
      2.08223104e-01 2.40100652e-01 6.11020327e-02 -2.16955766e-02
      -3.07691246e-01 0. -5.38045056e-02 0. 0. 0. 0. 0. 0.
      4.21692222e-01 -1.55051485e-01 1.50224268e-01 1.63099393e-01
      9.42884292e-03 2.26780567e-02 -3.14579867e-02 -2.23819211e-01 0.
      1.87149942e-01 0. 0. 0. 0. 0. 0. 3.78308505e-01 -1.74348906e-01
      -5.28482683e-02 -3.26376632e-02 -1.68020383e-01 -2.30708912e-01
      1.07850209e-01 5.92516698e-02 0. 4.28493738e-01 0. 0. 0. 0. 0. 0.
      3.86676252e-01 -2.46589743e-02 -1.79689094e-01 -5.03293633e-01
      -5.65735877e-01 -8.31187516e-02 5.03337502e-01 2.93800831e-01 0.
      2.02902839e-01 0. 0. 0. 0. 0. 0.</_>
    <_>
      -6.01342358e-02 2.43290365e-01 2.36426130e-01 -9.92734358e-02
      -4.40022759e-02 2.55428758e-02 1.54388949e-01 2.96143234e-01
      -1.89735380e-19 1.09334864e-01 0. 0. 0. 0. 0. 0. -7.43676126e-02
      1.66181728e-01 1.83474779e-01 1.57578904e-02 -9.31118801e-02
      -3.27449590e-02 -9.64690372e-02 1.85495138e-01 0. -6.91136718e-02
      0. 0. 0. 0. 0. 0. -8.86010006e-02 8.90730545e-02 1.30523279e-01
      1.30789191e-01 -1.42221525e-01 -9.10327956e-02 -3.47326994e-01
      7.48470575e-02 0. -1.30437613e-01 0. 0. 0. 0. 0. 0.
      -1.95280418e-01 2.71419734e-02 8.30262899e-02 3.92079562e-01
      1.37178853e-01 -4.22971174e-02 1.53248860e-02 -2.16307104e-01 0.
      4.83107090e-01 0. 0. 0. 0. 0. 0. -1.91400453e-01 -3.57723475e-05
      1.82281554e-01 4.01181221e-01 3.66986662e-01 -4.63790670e-02
      9.51215550e-02 -1.83557674e-01 0. -1.53134577e-02 0. 0. 0. 0. 0.
      0. -1.87520608e-01 -2.72134133e-02 2.81536877e-01 4.10282791e-01
      5.96794426e-01 -5.04608862e-02 1.74918279e-01 -1.50808349e-01 0.
      3.07758152e-01 0. 0. 0. 0. 0. 0. -1.48464125e-02 2.30582327e-01
      3.47957522e-01 1.03743464e-01 7.77494907e-02 1.96702797e-02
      2.86564976e-01 3.04987818e-01 0. -4.82779630e-02 0. 0. 0. 0. 0. 0.
      9.44928601e-02 4.37878489e-01 2.08172292e-01 -8.08053836e-02
      -2.37710327e-01 4.00499970e-01 6.72019601e-01 6.60411775e-01 0.
      -4.68899488e-01 0. 0. 0. 0. 0. 0.</_>
    <_>
      -2.60856301e-02 -1.92715060e-02 1.52510673e-01 -6.00237846e-02
      -3.71871680e-01 4.80041593e-01 2.63380229e-01 -3.32855999e-01
      -1.08420217e-19 -3.73991638e-01 0. 0. 0. 0. 0. 0. 4.41204235e-02
      -9.55085829e-02 -8.56271386e-02 -2.27514580e-01 2.66892742e-02
      -4.31597307e-02 -5.61446976e-03 -3.37801188e-01 0. -2.82569468e-01
      0. 0. 0. 0. 0. 0. 1.14326417e-01 -1.71745658e-01 -3.23765099e-01
      -3.95005494e-01 4.25250232e-01 -5.66361070e-01 -2.74609268e-01
      -3.42746377e-01 0. -2.37274557e-01 0. 0. 0. 0. 0. 0.
      2.15892792e-01 -2.27624729e-01 1.95662513e-01 -2.07061082e-01
      5.12447119e-01 -3.51117969e-01 -3.09572548e-01 -2.44332537e-01 0.
      1.81991011e-01 0. 0. 0. 0. 0. 0. 2.10696891e-01 -1.89438686e-01
      5.20994127e-01 -7.23415578e-04 3.82426828e-01 -6.08682483e-02
      -2.63354301e-01 -2.84383178e-01 0. -8.83834779e-01 0. 0. 0. 0. 0.
      0. 2.05500871e-01 -1.51252568e-01 8.46325636e-01 2.05614224e-01
      2.52406448e-01 2.29381487e-01 -2.17135936e-01 -3.24433804e-01 0.
      -2.21774220e-01 0. 0. 0. 0. 0. 0. 2.59481788e-01 2.40050659e-01
      5.55599093e-01 -6.54117316e-02 -2.41149634e-01 2.89023250e-01
      3.74095082e-01 3.85527834e-02 0. 5.34555495e-01 0. 0. 0. 0. 0. 0.
      3.09159189e-01 4.42258626e-01 4.08423036e-01 -8.38318527e-01
      -9.56433594e-01 4.01397437e-01 7.98629761e-01 1.79583684e-01 0.
      -5.79243362e-01 0. 0. 0. 0. 0. 0.</_>
    <_>
      -1.63340226e-01 1.04324013e-01 1.10151507e-01 -8.32799822e-02
      -4.47971979e-03 -8.19339417e-03 -1.28709078e-01 -2.10596055e-01
      -5.42101086e-19 -5.88775098e-01 0. 0. 0. 0. 0. 0. -1.41060501e-01
      1.49923757e-01 -4.20733653e-02 1.33202747e-01 1.14977121e-01
      -6.38448214e-03 5.11220396e-02 -1.83201566e-01 0. -2.25243062e-01
      0. 0. 0. 0. 0. 0. -1.18780755e-01 1.95523486e-01 -1.94298238e-01
      3.49685460e-01 2.34433979e-01 -4.57559666e-03 2.30953187e-01
      -1.55807093e-01 0. -3.65544647e-01 0. 0. 0. 0. 0. 0.
      9.05941427e-02 5.63925616e-02 -3.85684371e-02 2.40029156e-01
      3.78005728e-02 1.45475566e-01 2.58289486e-01 3.60289626e-02 0.
      -8.90447572e-02 0. 0. 0. 0. 0. 0. 1.01628177e-01 -6.35821670e-02
      -1.70850067e-03 3.11862361e-02 -6.48257360e-02 -5.81993870e-02
      1.41779393e-01 -1.90117490e-02 0. 1.50144115e-01 0. 0. 0. 0. 0. 0.
      1.12662226e-01 -1.83556974e-01 3.51513550e-02 -1.77656755e-01
      -1.67452067e-01 -2.61874259e-01 2.52693072e-02 -7.40524679e-02 0.
      2.64193743e-01 0. 0. 0. 0. 0. 0. 2.38376081e-01 -2.06140473e-01
      -4.40006167e-01 -1.63759053e-01 -5.29709719e-02 -2.59264737e-01
      1.33509099e-01 3.33781153e-01 0. -1.32697687e-01 0. 0. 0. 0. 0. 0.
      3.66876811e-01 -1.12035558e-01 -5.38760126e-01 -3.16731006e-01
      -1.82043463e-01 -2.56922752e-01 2.45445088e-01 3.54415059e-01 0.
      2.10442051e-01 0. 0. 0. 0. 0. 0.</_>
    <_>
      2.19560057e-01 3.83643001e-01 3.14967841e-01 -2.92348742e-01
      -7.22002089e-02 4.98482704e-01 1.15030751e-01 1.73062354e-01
      6.50521303e-19 -2.95743823e-01 0. 0. 0. 0. 0. 0. 5.57690300e-02
      1.51431814e-01 -1.51501568e-02 -1.67951770e-02 8.17663148e-02
      2.87308842e-01 1.39191926e-01 1.01330772e-01 0. -3.55488032e-01 0.
      0. 0. 0. 0. 0. -1.08022034e-01 -8.07794183e-02 -3.45268160e-01
      2.58758456e-01 2.35732839e-01 7.61350095e-02 1.63353056e-01
      2.95991804e-02 0. 5.27940512e-01 0. 0. 0. 0. 0. 0. 5.20926761e-03
      -2.76880652e-01 -7.50390720e-03 5.09061635e-01 5.14148891e-01
      3.68359536e-01 3.25896703e-02 8.19295570e-02 0. 6.04129553e-01 0.
      0. 0. 0. 0. 0. 2.26665828e-02 -3.49361837e-01 6.87326714e-02
      2.73967147e-01 3.88952285e-01 3.39471161e-01 -7.76508078e-02
      1.34964228e-01 0. 5.22356145e-02 0. 0. 0. 0. 0. 0. 4.01239023e-02
      -4.21843022e-01 1.44969150e-01 3.88726331e-02 2.63755560e-01
      3.10582936e-01 -1.87891215e-01 1.87998861e-01 0. 2.95221806e-01 0.
      0. 0. 0. 0. 0. 4.32510793e-01 1.27319425e-01 -2.16042608e-01
      -4.23981875e-01 -2.92890072e-01 2.02946961e-01 -1.48995072e-01
      1.77690029e-01 0. 4.45059597e-01 0. 0. 0. 0. 0. 0. 5.36215782e-01
      3.55764300e-01 1.61905840e-01 -4.67754781e-01 -1.47727922e-01
      3.38456035e-01 5.68060540e-02 1.32353112e-01 0. 4.46557194e-01 0.
      0. 0. 0. 0. 0.</_>
    <_>
      -5.48391819e-01 7.49524683e-02 -8.52485746e-03 -2.99903870e-01
      1.71911657e-01 3.38261098e-01 1.12877667e-01 -9.03322473e-02
      -6.23416249e-19 2.99482226e-01 0. 0. 0. 0. 0. 0. -4.20797110e-01
      1.47713035e-01 -2.43811551e-02 5.65986112e-02 9.63346101e-03
      1.52882084e-01 7.27239773e-02 -1.35820871e-02 0. -1.40699744e-01
      0. 0. 0. 0. 0. 0. -2.93202400e-01 2.20473394e-01 -4.02374603e-02
      4.13100719e-01 -1.52644619e-01 -3.24967690e-02 3.25702541e-02
      6.31680787e-02 0. 7.72410333e-01 0. 0. 0. 0. 0. 0. 2.53963292e-01
      -1.35695174e-01 -3.76770645e-02 -3.24782699e-01 1.63697556e-01
      -3.74072105e-01 2.65119802e-02 1.98319256e-01 0. -9.63148832e-01
      0. 0. 0. 0. 0. 0. 2.63621479e-01 -1.88289553e-01 1.57981247e-01
      -3.10858458e-01 -2.04322394e-02 -1.73377022e-01 -1.37288257e-01
      1.52661741e-01 0. -4.49944846e-03 0. 0. 0. 0. 0. 0. 2.73279667e-01
      -2.40883917e-01 3.53639424e-01 -2.96934277e-01 -2.04561949e-01
      2.73181293e-02 -3.01088482e-01 1.07004173e-01 0. -2.84267426e-01
      0. 0. 0. 0. 0. 0. 1.88539028e-01 -2.18157679e-01 -1.80122629e-02
      4.12724838e-02 -4.31327671e-01 -8.36997405e-02 -1.89943090e-02
      1.23927131e-01 0. 2.79811174e-01 0. 0. 0. 0. 0. 0. 2.12140247e-01
      5.72121702e-02 -7.34166950e-02 -8.67168784e-01 -7.89686322e-01
      2.71592587e-01 3.91929835e-01 5.58843417e-03 0. -1.01913646e-01 0.
      0. 0. 0. 0. 0.</_>
    <_>
      -2.76191443e-01 -5.93592338e-02 2.15396509e-01 -3.00780356e-01
      -1.46397367e-01 2.81678826e-01 5.50912274e-03 2.06119716e-01
      2.71050543e-19 2.52921492e-01 0. 0. 0. 0. 0. 0. -3.41726154e-01
      -1.63532235e-02 -3.53498831e-02 -2.26989985e-01 4.24472243e-02
      1.75363019e-01 1.07116826e-01 -1.24392502e-01 0. -3.25691134e-01
      0. 0. 0. 0. 0. 0. -4.07260895e-01 2.66527254e-02 -2.86096275e-01
      -1.53199613e-01 2.31291845e-01 6.90472052e-02 2.08724529e-01
      -4.54904705e-01 0. 1.57993392e-03 0. 0. 0. 0. 0. 0.
      -1.93363696e-01 1.24681070e-01 -7.44475499e-02 -1.21651836e-01
      -2.10325774e-02 5.78205772e-02 -6.28568307e-02 -2.37004593e-01 0.
      4.16337729e-01 0. 0. 0. 0. 0. 0. -9.44031328e-02 6.19561002e-02
      2.12693829e-02 -8.11326429e-02 -6.35919794e-02 7.70646259e-02
      -2.00391456e-01 -2.62177259e-01 0. 5.88558078e-01 0. 0. 0. 0. 0.
      0. 4.55743028e-03 -7.68899161e-04 1.16986312e-01 -4.06134948e-02
      -1.06151417e-01 9.63086635e-02 -3.37926120e-01 -2.87349880e-01 0.
      2.71641105e-01 0. 0. 0. 0. 0. 0. 3.22452396e-01 1.72249436e-01
      1.31252706e-01 7.91458115e-02 2.28435770e-02 -7.32683614e-02
      3.92173976e-02 6.88308179e-02 0. 8.18575084e-01 0. 0. 0. 0. 0. 0.
      5.54314494e-01 5.11486828e-01 3.18781793e-01 3.59856784e-02
      1.60516370e-02 2.32267126e-01 4.10741180e-01 2.62360215e-01 0.
      3.07627302e-02 0. 0. 0. 0. 0. 0.</_>
    <_>
      2.76879936e-01 3.17308962e-01 4.42219824e-01 2.11048529e-01
      1.53338835e-01 8.69053379e-02 -5.91385327e-02 1.74899578e-01
      4.33680869e-19 -4.37330306e-01 0. 0. 0. 0. 0. 0. 2.77071804e-01
      1.96318820e-01 3.81861240e-01 2.11668864e-01 1.51282862e-01
      3.27042118e-02 2.73927189e-02 -1.10973500e-01 0. -4.97313768e-01
      0. 0. 0. 0. 0. 0. 2.77263671e-01 7.53286630e-02 3.21502566e-01
      2.12289244e-01 1.49226904e-01 -2.14968640e-02 1.13924012e-01
      -3.96846622e-01 0. -5.80038391e-02 0. 0. 0. 0. 0. 0.
      1.24462664e-01 -1.85344666e-01 -4.25152272e-01 3.66172999e-01
      9.68665332e-02 1.39467463e-01 6.93768859e-02 -2.18685225e-01 0.
      3.30286354e-01 0. 0. 0. 0. 0. 0. 1.08591281e-01 -3.81648034e-01
      -7.93137625e-02 1.50997117e-02 2.93250054e-01 9.91781801e-02
      -9.61924419e-02 -1.31626040e-01 0. 4.29736614e-01 0. 0. 0. 0. 0.
      0. 9.27197710e-02 -5.77951431e-01 2.66524583e-01 -3.35973591e-01
      4.89633530e-01 5.88890165e-02 -2.61761636e-01 -4.45669591e-02 0.
      -1.11058772e-01 0. 0. 0. 0. 0. 0. -3.91803756e-02 9.88651887e-02
      6.00967586e-01 -1.35650411e-01 8.45043659e-02 3.63362104e-01
      -4.16282535e-01 6.04841784e-02 0. 2.05883812e-02 0. 0. 0. 0. 0. 0.
      -1.24945126e-01 5.16028583e-01 6.81265116e-01 -4.91067588e-01
      -2.51808107e-01 7.64542878e-01 -1.43641448e-02 7.01094419e-02 0.
      -1.11389208e+00 0. 0. 0. 0. 0. 0.</_>
    <_>
      1.56499043e-01 2.47467145e-01 -6.42938912e-02 -7.93432221e-02
      9.44420788e-03 3.57699662e-01 1.74509943e-01 2.08177745e-01
      -1.08420217e-19 3.53353173e-01 0. 0. 0. 0. 0. 0. 1.97111309e-01
      3.32618833e-01 -1.31934032e-01 7.60366172e-02 3.01787585e-01
      1.87100872e-01 1.23642199e-01 1.95601091e-01 0. 3.31465267e-02 0.
      0. 0. 0. 0. 0. 2.37723559e-01 4.17770475e-01 -1.99574247e-01
      2.31416374e-01 5.94130933e-01 1.65021401e-02 7.27744475e-02
      1.83024451e-01 0. 4.13847491e-02 0. 0. 0. 0. 0. 0. 3.62878382e-01
      3.04080129e-01 1.02470823e-01 1.50586158e-01 3.94034535e-01
      4.12041277e-01 -1.51108727e-01 1.79260403e-01 0. 2.76336789e-01 0.
      0. 0. 0. 0. 0. 1.88287586e-01 8.16641673e-02 2.88380235e-01
      1.17102243e-01 3.90836477e-01 4.13609833e-01 -1.57967225e-01
      1.36582494e-01 0. 2.01800987e-01 0. 0. 0. 0. 0. 0. 1.36967860e-02
      -1.40751690e-01 4.74289596e-01 8.36182982e-02 3.87638211e-01
      4.15178478e-01 -1.64825633e-01 9.39045101e-02 0. 3.22776675e-01 0.
      0. 0. 0. 0. 0. -4.84032840e-01 2.49926329e-01 1.74764559e-01
      2.00278964e-02 3.11590970e-01 5.08909881e-01 1.89893574e-01
      1.55490264e-01 0. 2.29517937e-01 0. 0. 0. 0. 0. 0. -5.02557278e-01
      2.65364587e-01 3.79287481e-01 -2.30039030e-01 -1.66774780e-01
      6.10632539e-01 5.63493669e-01 1.91373155e-01 0. 2.57411957e-01 0.
      0. 0. 0. 0. 0.</_>
    <_>
      -1.90084457e-01 3.65120679e-01 4.62559491e-01 -5.77785373e-02
      -4.08013016e-01 -2.75145680e-01 8.51963237e-02 -1.31577358e-01 0.
      3.20687532e-01 0. 0. 0. 0. 0. 0. -1.53086036e-01 2.67013669e-01
      2.61584252e-01 -9.92152765e-02 -5.27312100e-01 -2.74567395e-01
      3.86806466e-02 -9.67285261e-02 0. 1.61246687e-01 0. 0. 0. 0. 0. 0.
      -1.16087593e-01 1.68906644e-01 6.06090315e-02 -1.40651986e-01
      -6.46611154e-01 -2.73989052e-01 -7.83508550e-03 -6.18797205e-02 0.
      -7.46197224e-01 0. 0. 0. 0. 0. 0. -1.75281838e-01 -2.46519476e-01
      2.55134314e-01 5.08191511e-02 -4.12818789e-01 1.47278579e-02
      1.22596465e-01 -2.27075562e-01 0. 7.75322080e-01 0. 0. 0. 0. 0. 0.
      -2.20678464e-01 -2.24167302e-01 3.38729382e-01 2.36061200e-01
      -1.88925415e-02 3.12966883e-01 2.16062039e-01 -1.29712090e-01 0.
      2.08979309e-01 0. 0. 0. 0. 0. 0. -2.66075134e-01 -2.01815128e-01
      4.22324508e-01 4.21303242e-01 3.75033736e-01 6.11205876e-01
      3.09527516e-01 -3.23486142e-02 0. 2.37599671e-01 0. 0. 0. 0. 0. 0.
      6.09027296e-02 -1.70905396e-01 3.93722206e-01 7.09406808e-02
      3.73336077e-01 7.61946365e-02 1.29171908e-01 -8.53475481e-02 0.
      -7.09283277e-02 0. 0. 0. 0. 0. 0. 1.98090002e-01 -4.33210470e-02
      3.18256468e-01 -2.32372526e-03 2.03514367e-01 1.50451306e-02
      -2.18057722e-01 -4.02016580e-01 0. -7.92411923e-01 0. 0. 0. 0. 0.
      0.</_>
    <_>
      5.48084080e-01 3.68036747e-01 2.30470389e-01 3.08695018e-01
      -6.10506013e-02 -1.89091116e-01 2.16232285e-01 9.93602071e-03
      4.33680869e-19 -6.91016257e-01 0. 0. 0. 0. 0. 0. 4.94586766e-01
      6.82217954e-03 8.23762119e-02 -1.47503735e-02 -6.83766827e-02
      -2.78605253e-01 2.18818001e-02 -3.60991806e-02 0. -7.14722723e-02
      0. 0. 0. 0. 0. 0. 4.41089481e-01 -3.54392350e-01 -6.57179207e-02
      -3.38195771e-01 -7.57027492e-02 -3.68119329e-01 -1.72468767e-01
      -8.21343660e-02 0. -9.70780849e-01 0. 0. 0. 0. 0. 0.
      4.67419177e-02 -3.10846925e-01 -5.40549271e-02 -3.14904541e-01
      -2.29856238e-01 -1.02087282e-01 -1.51637986e-01 2.62152821e-01 0.
      7.60523498e-01 0. 0. 0. 0. 0. 0. -7.78651461e-02 -2.23404482e-01
      4.58755679e-02 -2.24252149e-01 -1.60676062e-01 7.43080750e-02
      -1.63531974e-01 2.08885774e-01 0. -1.42142951e-01 0. 0. 0. 0. 0.
      0. -2.02472195e-01 -1.35961965e-01 1.45806074e-01 -1.33599713e-01
      -9.14959162e-02 2.50703394e-01 -1.75425947e-01 1.55618683e-01 0.
      -2.96321124e-01 0. 0. 0. 0. 0. 0. -2.00807720e-01 -2.56652217e-02
      1.67215616e-01 -1.30508348e-01 -4.35570404e-02 2.16329306e-01
      -1.13540888e-01 3.24189127e-03 0. 2.68572271e-01 0. 0. 0. 0. 0. 0.
      -1.64002016e-01 5.50557114e-02 3.24647486e-01 -1.07603282e-01
      -6.79138452e-02 1.47318348e-01 -2.53491163e-01 -1.18024029e-01 0.
      -4.11736369e-01 0. 0. 0. 0. 0. 0.</_>
    <_>
      2.23485932e-01 1.48110136e-01 -8.15256462e-02 1.70355827e-01
      6.64422140e-02 -1.53646916e-02 -1.28842488e-01 1.72129292e-02
      -2.16840434e-19 -5.96709847e-01 0. 0. 0. 0. 0. 0. 2.16861799e-01
      2.06486240e-01 -1.59406528e-01 1.09618649e-01 9.05495882e-02
      5.40397651e-02 -8.72465298e-02 -8.83201044e-03 0. -7.72044733e-02
      0. 0. 0. 0. 0. 0. 2.10237682e-01 2.64862299e-01 -2.37287357e-01
      4.88814488e-02 1.14656948e-01 1.23444229e-01 -4.56505865e-02
      -3.48769575e-02 0. -8.16359103e-01 0. 0. 0. 0. 0. 0.
      2.44350523e-01 2.39136800e-01 -3.45751159e-02 -1.13647796e-01
      -2.18893737e-01 -3.45979497e-04 1.52084544e-01 6.80669621e-02 0.
      3.49084586e-01 0. 0. 0. 0. 0. 0. 1.39345124e-01 1.07046887e-01
      -6.58601671e-02 -1.93668693e-01 -3.75715226e-01 -1.84310436e-01
      -6.16708919e-02 -3.51292416e-02 0. -1.65613681e-01 0. 0. 0. 0. 0.
      0. 3.43397148e-02 -2.50431076e-02 -9.71452445e-02 -2.73689598e-01
      -5.32536745e-01 -3.68274897e-01 -2.75426328e-01 -1.38325393e-01 0.
      4.39035147e-02 0. 0. 0. 0. 0. 0. 1.48323014e-01 -3.11214894e-01
      -2.20805660e-01 -2.26727068e-01 -2.03728184e-01 1.29270285e-01
      3.82533371e-02 3.84936690e-01 0. -2.14846954e-01 0. 0. 0. 0. 0. 0.
      2.46836334e-01 -3.15077662e-01 -2.88332313e-01 -1.37513995e-01
      -1.96188614e-01 6.87497556e-02 2.37571970e-02 3.19777906e-01 0.
      4.34660167e-02 0. 0. 0. 0. 0. 0.</_>
    <_>
      -1.12926081e-01 4.18676943e-01 4.12132233e-01 1.03389360e-01
      -4.18507636e-01 -6.27551019e-01 2.06769392e-01 5.14078289e-02 0.
      8.87786895e-02 0. 0. 0. 0. 0. 0. -1.29259517e-02 2.73134977e-01
      -1.40444845e-01 1.19592436e-01 -4.82622951e-01 -3.22096646e-01
      2.74296999e-01 -2.39995830e-02 0. -1.65042877e-01 0. 0. 0. 0. 0.
      0. 8.70741457e-02 1.27593055e-01 -6.93021774e-01 1.35795534e-01
      -5.46738327e-01 -1.66422203e-02 3.41824561e-01 -9.94070023e-02 0.
      -1.01793587e+00 0. 0. 0. 0. 0. 0. 1.92736119e-01 1.37105882e-01
      -5.17384224e-02 -7.68555477e-02 -2.80151576e-01 2.58465737e-01
      3.53135645e-01 2.19852284e-01 0. 8.23888779e-01 0. 0. 0. 0. 0. 0.
      4.87593859e-02 2.06278294e-01 7.08628744e-02 -1.74649149e-01
      3.59084792e-02 4.41244632e-01 1.52054250e-01 2.12136313e-01 0.
      5.61302245e-01 0. 0. 0. 0. 0. 0. -9.52172726e-02 2.75450766e-01
      1.93464145e-01 -2.72442847e-01 3.51968437e-01 6.24023557e-01
      -4.90271747e-02 2.04420298e-01 0. 3.07154864e-01 0. 0. 0. 0. 0. 0.
      -3.20824116e-01 4.75031674e-01 2.23876029e-01 -4.98889714e-01
      -2.74700463e-01 5.12463927e-01 -4.60942149e-01 -1.07489727e-01 0.
      -3.71735990e-01 0. 0. 0. 0. 0. 0. -3.00930023e-01 1.57327369e-01
      6.46905482e-01 -9.49215144e-02 6.89247921e-02 5.57666898e-01
      -6.97549999e-01 -7.15797484e-01 0. -3.07373434e-01 0. 0. 0. 0. 0.
      0.</_>
    <_>
      8.08489621e-02 -1.77717805e-01 1.13044055e-02 1.12344302e-01
      -4.26978851e-03 7.09610945e-03 2.83436567e-01 3.31038907e-02
      -4.33680869e-19 -2.12468714e-01 0. 0. 0. 0. 0. 0. 1.22846566e-01
      -3.20564001e-03 -1.54311523e-01 3.76316607e-02 -8.36184025e-02
      -1.04821622e-01 1.93761081e-01 1.49935400e-02 0. -2.98988372e-01
      0. 0. 0. 0. 0. 0. 1.64844111e-01 1.71306521e-01 -3.19927394e-01
      -3.70809995e-02 -1.62967011e-01 -2.16739312e-01 1.04085542e-01
      -3.11681279e-03 0. -1.01974213e+00 0. 0. 0. 0. 0. 0.
      1.10378638e-01 1.55560598e-01 1.88494027e-01 -3.84930491e-01
      -5.20870864e-01 -2.02277511e-01 2.36188360e-02 3.88799787e-01 0.
      3.08338165e-01 0. 0. 0. 0. 0. 0. 8.73138234e-02 1.85609818e-01
      1.12825118e-01 -3.91352683e-01 -3.81877691e-01 -1.05576955e-01
      -9.78874881e-03 3.31466854e-01 0. -4.27372120e-02 0. 0. 0. 0. 0.
      0. 6.42490014e-02 2.15658948e-01 3.71561311e-02 -3.97774905e-01
      -2.42884442e-01 -8.87636561e-03 -4.31963578e-02 2.74133861e-01 0.
      -3.40371490e-01 0. 0. 0. 0. 0. 0. 9.88718644e-02 1.66042343e-01
      -3.87244485e-02 -2.90751517e-01 -3.83668005e-01 3.46335948e-01
      -9.14758518e-02 2.53393382e-01 0. -4.60352242e-01 0. 0. 0. 0. 0.
      0. -1.22210324e-01 9.11226124e-02 8.96335840e-02 -1.17708489e-01
      -2.75177330e-01 2.50797570e-01 1.67498454e-01 1.84319422e-01 0.
      -3.67476881e-01 0. 0. 0. 0. 0. 0.</_>
    <_>
      2.52521038e-01 3.32203656e-01 3.70902658e-01 3.43884856e-01
      7.16487169e-02 2.35467866e-01 -1.00985922e-01 -1.64977685e-01
      -4.60785923e-19 2.46267363e-01 0. 0. 0. 0. 0. 0. 8.96981135e-02
      1.13279916e-01 7.18718320e-02 8.04174133e-03 2.92109083e-02
      2.40396768e-01 -9.67298076e-03 -4.13478076e-01 0. -2.75853604e-01
      0. 0. 0. 0. 0. 0. -7.31247962e-02 -1.05643831e-01 -2.27158934e-01
      -3.27801347e-01 -1.32268844e-02 2.45325744e-01 8.16398934e-02
      -6.61978424e-01 0. -7.41595507e-01 0. 0. 0. 0. 0. 0.
      -2.41519511e-01 -9.38480422e-02 -1.04993552e-01 -3.43429327e-01
      -6.60894692e-01 2.07107320e-01 2.57477194e-01 -1.47177532e-01 0.
      8.79931390e-01 0. 0. 0. 0. 0. 0. -2.86485404e-01 -8.65809917e-02
      6.97909966e-02 -1.83197513e-01 -5.26085854e-01 3.54530364e-01
      1.98015124e-01 -2.15828359e-01 0. 1.44995153e-01 0. 0. 0. 0. 0. 0.
      -3.31451267e-01 -7.93139860e-02 2.44575635e-01 -2.29656845e-02
      -3.91276896e-01 5.01953185e-01 1.38552949e-01 -2.84479201e-01 0.
      -1.33400112e-02 0. 0. 0. 0. 0. 0. -2.83678845e-02 2.28836700e-01
      3.54738504e-01 -5.89704933e-03 -3.05535197e-01 8.48750696e-02
      2.59958297e-01 -2.02550441e-01 0. 1.89623296e-01 0. 0. 0. 0. 0. 0.
      3.15202802e-01 4.57507193e-01 3.18082184e-01 3.62170070e-01
      1.24771170e-01 2.92868674e-01 -2.47998280e-03 -4.39472377e-01 0.
      9.90323052e-02 0. 0. 0. 0. 0. 0.</_>
    <_>
      4.67504948e-01 3.84552509e-01 9.90987346e-02 -6.72444776e-02
      -1.49680406e-01 -3.18000704e-01 9.00522023e-02 2.89737850e-01
      1.08420217e-19 -1.10516489e-01 0. 0. 0. 0. 0. 0. 4.56832349e-01
      1.00730419e-01 1.07101284e-01 -1.36617303e-01 -1.79665402e-01
      -2.36113071e-01 -3.07992622e-02 1.72811642e-01 0. -2.40488514e-01
      0. 0. 0. 0. 0. 0. 4.46159780e-01 -1.83091700e-01 1.15103930e-01
      -2.05990106e-01 -2.09650442e-01 -1.54225409e-01 -1.51650742e-01
      5.58854416e-02 0. -5.92230916e-01 0. 0. 0. 0. 0. 0. 1.74767435e-01
      -1.93912849e-01 -1.80225089e-01 -1.60143003e-01 -1.86350927e-01
      -1.58089884e-02 3.01667489e-03 1.12018444e-01 0. -1.43285051e-01
      0. 0. 0. 0. 0. 0. 7.24220872e-02 -1.53998122e-01 -1.04712024e-01
      -2.36639261e-01 -5.69199398e-02 9.25038010e-02 3.57741117e-03
      8.30311105e-02 0. 3.52325708e-01 0. 0. 0. 0. 0. 0. -2.99233012e-02
      -1.14083387e-01 -2.91989855e-02 -3.13135505e-01 7.25110099e-02
      2.00816572e-01 4.13815770e-03 5.40437438e-02 0. -2.63917089e-01 0.
      0. 0. 0. 0. 0. -3.96167785e-02 -7.01728687e-02 3.17614794e-01
      -2.66510099e-01 -7.48260021e-02 1.65308341e-01 -1.24161556e-01
      -3.39513607e-02 0. -1.41788915e-01 0. 0. 0. 0. 0. 0.
      -8.71582776e-02 4.82071936e-02 4.33894396e-01 -1.68902948e-01
      -9.04232264e-02 1.45102978e-01 -2.57057726e-01 -1.43295124e-01 0.
      6.61401078e-02 0. 0. 0. 0. 0. 0.</_>
    <_>
      5.49135029e-01 1.74958438e-01 -1.51212648e-01 2.08088353e-01
      -8.33844915e-02 -5.59481084e-01 1.23615868e-01 2.46256873e-01
      -4.33680869e-19 -1.94878772e-01 0. 0. 0. 0. 0. 0. 4.01221156e-01
      1.19014986e-01 -1.02748960e-01 -8.72324407e-03 -1.02094814e-01
      -3.39326978e-01 -3.74657772e-02 2.33857766e-01 0. 1.13293283e-01
      0. 0. 0. 0. 0. 0. 2.53307313e-01 6.30715862e-02 -5.42852245e-02
      -2.25534841e-01 -1.20805152e-01 -1.19172849e-01 -1.98547497e-01
      2.21458659e-01 0. -3.95163288e-03 0. 0. 0. 0. 0. 0. 7.88986012e-02
      -3.69552756e-03 2.51346588e-01 -2.64239013e-01 -3.18556994e-01
      5.23968041e-02 -9.18410495e-02 4.66201991e-01 0. -4.19014096e-02
      0. 0. 0. 0. 0. 0. -2.16839939e-01 -1.70554587e-04 1.95302993e-01
      -2.19228029e-01 -2.07117617e-01 1.00731470e-01 -9.41959023e-02
      3.77456218e-01 0. 9.01830271e-02 0. 0. 0. 0. 0. 0. -5.12578487e-01
      3.35435825e-03 1.39259338e-01 -1.74217075e-01 -9.56782699e-02
      1.49066135e-01 -9.65507552e-02 2.88710356e-01 0. -5.66699088e-01
      0. 0. 0. 0. 0. 0. -3.45520884e-01 4.01758850e-01 1.39776822e-02
      -2.26970553e-01 -2.16990203e-01 4.61955100e-01 -4.66844738e-02
      6.62335977e-02 0. -3.57754938e-02 0. 0. 0. 0. 0. 0.
      -3.64682257e-01 3.49630564e-01 3.13360363e-01 -2.33076155e-01
      -1.23644672e-01 5.11154115e-01 -3.56137231e-02 -1.94204807e-01 0.
      2.23892674e-01 0. 0. 0. 0. 0. 0.</_>
    <_>
      2.64178962e-01 -2.37224698e-01 -6.01963811e-02 -9.97337326e-02
      -2.94386536e-01 5.10830998e-01 2.39066988e-01 -8.29866901e-02
      -6.50521303e-19 -1.55397668e-01 0. 0. 0. 0. 0. 0. 1.88266709e-01
      -4.45398271e-01 -2.34877951e-02 -3.30818236e-01 -1.49533749e-01
      3.01436186e-01 2.71757603e-01 -1.35507938e-02 0. -1.17394730e-01
      0. 0. 0. 0. 0. 0. 1.12354435e-01 -6.53571784e-01 1.32209025e-02
      -5.61902761e-01 -4.68091853e-03 9.20412689e-02 3.04448187e-01
      5.58851212e-02 0. -2.32256636e-01 0. 0. 0. 0. 0. 0.
      -1.01192638e-01 -1.79822147e-01 1.35706276e-01 -3.36001933e-01
      -2.73000091e-01 9.46396813e-02 -2.03753412e-01 3.00102144e-01 0.
      2.45243609e-02 0. 0. 0. 0. 0. 0. -1.29895836e-01 -1.02658510e-01
      1.73240110e-01 -2.22934201e-01 -3.79873902e-01 1.13283515e-01
      -3.23127210e-01 1.95661023e-01 0. -3.09642911e-01 0. 0. 0. 0. 0.
      0. -1.58599034e-01 -2.54948847e-02 2.10773855e-01 -1.09866440e-01
      -4.86747652e-01 1.31927326e-01 -4.42501098e-01 9.12199467e-02 0.
      -2.71121174e-01 0. 0. 0. 0. 0. 0. -2.49116004e-01 1.47176581e-02
      1.05651051e-01 1.91756964e-01 3.13372970e-01 4.00210440e-01
      -3.87143761e-01 -2.39883617e-01 0. 1.71645522e-01 0. 0. 0. 0. 0.
      0. -2.05266163e-01 -1.29401565e-01 1.05341330e-01 1.74808383e-01
      3.19946021e-01 2.50706315e-01 -4.37826067e-01 -5.67463815e-01 0.
      -6.90577477e-02 0. 0. 0. 0. 0. 0.</_>
    <_>
      8.86975676e-02 4.65339981e-02 -7.05644712e-02 4.32394585e-03
      2.11652413e-01 -7.95820951e-02 -9.45698321e-02 -1.24936998e-01
      8.13151629e-20 -4.67798680e-01 0. 0. 0. 0. 0. 0. 7.30734617e-02
      2.55929474e-02 -5.91302253e-02 1.01630233e-01 2.33930975e-01
      -1.55832712e-02 -2.58543674e-04 -5.34216203e-02 0. -9.55034569e-02
      0. 0. 0. 0. 0. 0. 5.74493594e-02 4.65189805e-03 -4.76959534e-02
      1.98936522e-01 2.56209552e-01 4.84155677e-02 9.40527245e-02
      1.80937499e-02 0. 5.26257567e-02 0. 0. 0. 0. 0. 0. 7.33995065e-02
      6.17257692e-02 -4.91152890e-02 -1.49642602e-02 2.01689415e-02
      2.24655494e-02 9.05047506e-02 6.52127787e-02 0. -1.33571833e-01 0.
      0. 0. 0. 0. 0. 8.24146494e-02 7.60050938e-02 -9.04066041e-02
      -1.81040198e-01 -1.45438641e-01 -7.77164400e-02 -2.09720917e-02
      -1.32571077e-02 0. -2.16900259e-01 0. 0. 0. 0. 0. 0.
      9.14298072e-02 9.02843848e-02 -1.31697953e-01 -3.47116143e-01
      -3.11046213e-01 -1.77898422e-01 -1.32448927e-01 -9.17269662e-02 0.
      1.20438494e-01 0. 0. 0. 0. 0. 0. -4.77089547e-02 -3.96777801e-02
      -4.80087489e-01 -3.49054635e-01 -9.91993770e-02 -1.87672853e-01
      1.17032100e-02 5.46795614e-02 0. -2.24707767e-01 0. 0. 0. 0. 0. 0.
      7.47508788e-03 -1.52587920e-01 -5.71130455e-01 -2.93670923e-01
      -5.09135388e-02 -3.03035200e-01 3.74959372e-02 8.50361437e-02 0.
      1.60042286e-01 0. 0. 0. 0. 0. 0.</_>
    <_>
      2.75736749e-01 4.75097410e-02 -3.73594582e-01 -1.28836617e-01
      5.39374769e-01 1.58962399e-01 2.97326177e-01 1.99964821e-01
      -9.74087889e-21 -3.75622392e-01 0. 0. 0. 0. 0. 0. 1.87188372e-01
      -9.21660438e-02 -3.40956748e-01 -5.66192046e-02 4.51504558e-01
      2.84711346e-02 3.36870790e-01 2.41253480e-01 0. -2.44213343e-01 0.
      0. 0. 0. 0. 0. 9.86399800e-02 -2.31841788e-01 -3.08318794e-01
      1.55982664e-02 3.63634378e-01 -1.02020182e-01 3.76415402e-01
      2.82542139e-01 0. 2.77582467e-01 0. 0. 0. 0. 0. 0. -4.37337011e-02
      -5.54799549e-02 -2.19580129e-01 5.19799143e-02 3.98761153e-01
      -3.14112931e-01 9.05335918e-02 4.59372938e-01 0. -3.90938133e-01
      0. 0. 0. 0. 0. 0. -9.63305980e-02 8.44274182e-03 -2.60676354e-01
      -2.19524130e-01 1.68382093e-01 -2.58457541e-01 -4.48137410e-02
      3.47651154e-01 0. -1.26510695e-01 0. 0. 0. 0. 0. 0.
      -1.48927391e-01 7.23654479e-02 -3.01772594e-01 -4.91028190e-01
      -6.19969741e-02 -2.02802092e-01 -1.80161133e-01 2.35929444e-01 0.
      1.80352926e-01 0. 0. 0. 0. 0. 0. 5.91334850e-02 5.94394505e-01
      -5.10447979e-01 -4.55554426e-01 -1.74727261e-01 3.95986736e-02
      -3.58064204e-01 -1.79716945e-01 0. 2.16289684e-01 0. 0. 0. 0. 0.
      0. 9.92669091e-02 2.01363638e-01 -3.47315311e-01 -4.45422322e-01
      3.00068781e-02 7.48830363e-02 -4.70608890e-01 -5.35454929e-01 0.
      3.18794698e-01 0. 0. 0. 0. 0. 0.</_>
    <_>
      1.48668826e-01 -1.20145883e-02 -2.22305194e-01 -2.15479180e-01
      2.24260807e-01 1.57729924e-01 3.70104983e-02 -7.77040198e-02
      -2.16840434e-19 -9.76407528e-02 0. 0. 0. 0. 0. 0. 1.48253933e-01
      -1.08076729e-01 -2.26195902e-01 -2.12362155e-01 2.00680584e-01
      1.72885090e-01 1.00997366e-01 -3.63923013e-02 0. 7.72775635e-02 0.
      0. 0. 0. 0. 0. 1.47839025e-01 -2.04138890e-01 -2.30086580e-01
      -2.09245175e-01 1.77100331e-01 1.88040257e-01 1.64984211e-01
      4.91942232e-03 0. 1.44772697e-02 0. 0. 0. 0. 0. 0. 9.79446322e-02
      -6.72573671e-02 -5.12629189e-02 -6.13324702e-01 -1.46742240e-01
      -1.55797169e-01 3.91862877e-02 3.00660077e-02 0. -1.05122328e-01
      0. 0. 0. 0. 0. 0. 7.42090046e-02 7.93818664e-03 -6.94686100e-02
      -5.98398745e-01 -3.88268322e-01 1.03892088e-01 -6.89092800e-02
      -3.87903191e-02 0. -6.69190809e-02 0. 0. 0. 0. 0. 0.
      5.04734218e-02 8.31336975e-02 -8.76743346e-02 -5.83472788e-01
      -6.29794240e-01 3.63581359e-01 -1.77004859e-01 -1.07646607e-01 0.
      -1.33843776e-02 0. 0. 0. 0. 0. 0. -1.49890915e-01 -1.47231430e-01
      -4.35121685e-01 -2.93141574e-01 -1.76943392e-01 8.50967541e-02
      -2.26569280e-01 -2.44394928e-01 0. 2.28049889e-01 0. 0. 0. 0. 0.
      0. -1.98211327e-01 -3.04777205e-01 -3.35562587e-01 -1.48470685e-01
      -1.12726256e-01 -2.58562267e-01 -4.19307590e-01 -3.76675814e-01 0.
      -2.49383330e-01 0. 0. 0. 0. 0. 0.</_>
    <_>
      8.91251676e-03 -1.24116190e-01 -2.18617782e-01 -2.46085033e-01
      7.92165399e-02 6.49046004e-01 1.57905951e-01 5.45141734e-02
      3.25260652e-19 -2.78471201e-03 0. 0. 0. 0. 0. 0. -1.34541154e-01
      -1.25199646e-01 -2.27109209e-01 -2.77619898e-01 1.64141431e-01
      4.48284537e-01 1.67909428e-01 -3.27553958e-01 0. -3.40715915e-01
      0. 0. 0. 0. 0. 0. -2.77994871e-01 -1.26283124e-01 -2.35600606e-01
      -3.09154749e-01 2.49066338e-01 2.47523114e-01 1.77912906e-01
      -7.09622025e-01 0. -2.88296819e-01 0. 0. 0. 0. 0. 0.
      -2.09357649e-01 2.10500032e-01 -1.66778907e-01 -4.44200069e-01
      -9.26923156e-02 9.02113914e-02 -1.56138629e-01 -3.13265830e-01 0.
      4.14603576e-02 0. 0. 0. 0. 0. 0. -1.33145243e-01 2.31588304e-01
      -1.28514748e-02 -3.26757997e-01 -2.43449807e-01 -2.20585777e-03
      -2.48423025e-01 -3.83710057e-01 0. -7.14998484e-01 0. 0. 0. 0. 0.
      0. -5.69327846e-02 2.52676576e-01 1.41075939e-01 -2.09315866e-01
      -3.94207299e-01 -9.46231633e-02 -3.40707421e-01 -4.54154313e-01 0.
      9.12838876e-02 0. 0. 0. 0. 0. 0. -1.11501463e-01 2.67207474e-01
      -2.57476009e-02 3.98633108e-02 -2.41899312e-01 -2.84467489e-01
      1.40295684e-01 -1.19499810e-01 0. 2.02763841e-01 0. 0. 0. 0. 0. 0.
      -1.69168431e-02 1.28994063e-01 -2.48016447e-01 2.77778149e-01
      -2.53369719e-01 -5.18632829e-01 1.42304167e-01 -5.88628203e-02 0.
      4.83962327e-01 0. 0. 0. 0. 0. 0.</_>
    <_>
      6.63674995e-02 9.01182275e-03 -1.40649050e-01 2.40221433e-02
      8.87435768e-03 8.92433375e-02 1.33019134e-01 4.45360020e-02
      1.62630326e-19 -4.96800154e-01 0. 0. 0. 0. 0. 0. 6.32882565e-02
      -8.82072467e-03 -8.11425894e-02 -8.51959214e-02 7.85936490e-02
      8.79816115e-02 1.52908757e-01 6.50278479e-02 0. -1.81326106e-01 0.
      0. 0. 0. 0. 0. 6.02090247e-02 -2.66532600e-02 -2.16360465e-02
      -1.94413990e-01 1.48312971e-01 8.67198631e-02 1.72798336e-01
      8.55196938e-02 0. -7.57526040e-01 0. 0. 0. 0. 0. 0. 1.42060593e-01
      -5.34055643e-02 -1.68724805e-01 -2.48659804e-01 9.11692157e-02
      7.82594979e-02 -2.65133474e-02 6.34335801e-02 0. 1.75340340e-01 0.
      0. 0. 0. 0. 0. 1.26231641e-01 -6.19326197e-02 -2.30141804e-01
      -4.08990085e-01 -9.44273323e-02 2.34775752e-01 -8.38125274e-02
      -3.64265987e-03 0. 3.18113714e-01 0. 0. 0. 0. 0. 0. 1.10402688e-01
      -7.04597458e-02 -2.91558892e-01 -5.69320261e-01 -2.80023813e-01
      3.91292006e-01 -1.41111746e-01 -7.07188696e-02 0. -5.70961535e-02
      0. 0. 0. 0. 0. 0. -3.40187587e-02 -6.83832094e-02 -7.79235289e-02
      -4.06612515e-01 -3.79549190e-02 3.44918072e-02 -4.10179734e-01
      -4.35540110e-01 0. -3.80118608e-01 0. 0. 0. 0. 0. 0.
      3.43593620e-02 -3.89347225e-01 -3.14673692e-01 -2.93550611e-01
      2.08930857e-02 -1.02902822e-01 -6.12409174e-01 -7.24045038e-01 0.
      5.57755455e-02 0. 0. 0. 0. 0. 0.</_>
    <_>
      6.92765191e-02 -9.17064697e-02 -4.22024220e-01 -2.17300013e-01
      5.80027513e-03 1.36098653e-01 2.70302862e-01 1.45169646e-01
      1.19262239e-18 -3.90994489e-01 0. 0. 0. 0. 0. 0. 4.55141664e-02
      -1.02847494e-01 -3.25877964e-01 -1.79939643e-01 1.06314205e-01
      1.58626258e-01 3.17111969e-01 2.14682564e-01 0. 1.40162572e-01 0.
      0. 0. 0. 0. 0. 2.17518099e-02 -1.13988459e-01 -2.29731604e-01
      -1.42579302e-01 2.06828177e-01 1.81153849e-01 3.63921016e-01
      2.84195483e-01 0. 2.53121734e-01 0. 0. 0. 0. 0. 0. 1.74664810e-01
      -7.60627619e-04 1.17306925e-01 2.47830018e-01 -1.32979468e-01
      1.03099188e-02 -2.30111957e-01 5.43050885e-01 0. -3.18196654e-01
      0. 0. 0. 0. 0. 0. 4.99698482e-02 2.83323489e-02 2.35524788e-01
      1.37358323e-01 -2.45018587e-01 7.41365999e-02 -1.99635193e-01
      4.36557740e-01 0. 1.35102058e-02 0. 0. 0. 0. 0. 0. -7.47250766e-02
      5.74252829e-02 3.53742599e-01 2.68866252e-02 -3.57057780e-01
      1.37963206e-01 -1.69158459e-01 3.30064595e-01 0. -3.59713018e-01
      0. 0. 0. 0. 0. 0. -3.41344774e-01 2.55776584e-01 -4.35257733e-01
      -1.86143648e-02 5.99772744e-02 2.27973938e-01 1.83284264e-02
      -1.97824359e-01 0. -1.37747318e-01 0. 0. 0. 0. 0. 0.
      -4.10412222e-01 -2.59224683e-01 -4.75175858e-01 -2.02897891e-01
      -4.62173894e-02 -3.30633074e-02 -5.32203652e-02 -5.59704900e-01 0.
      1.25162506e+00 0. 0. 0. 0. 0. 0.</_>
    <_>
      -1.81785166e-01 1.03802405e-01 8.25112090e-02 -1.21714687e-02
      -5.72254416e-03 -1.30421579e-01 -1.15163565e-01 9.72313508e-02
      1.08420217e-19 -3.18290770e-01 0. 0. 0. 0. 0. 0. -2.14194536e-01
      2.20739350e-01 6.86026290e-02 1.93624780e-01 1.25308558e-01
      7.01569021e-02 4.30504084e-02 1.20430030e-01 0. 6.01461306e-02 0.
      0. 0. 0. 0. 0. -2.46603861e-01 3.37676257e-01 5.46940789e-02
      3.99421066e-01 2.56339669e-01 2.70735353e-01 2.01264441e-01
      1.43628687e-01 0. -6.57586157e-02 0. 0. 0. 0. 0. 0.
      -9.07384902e-02 2.27310091e-01 3.78881879e-02 1.82502106e-01
      6.48624217e-03 1.41552240e-01 2.92986453e-01 9.87046584e-02 0.
      -5.95646203e-02 0. 0. 0. 0. 0. 0. -2.12791539e-03 1.11471377e-01
      -5.89498542e-02 4.82495874e-02 -1.15449391e-01 -5.02325855e-02
      1.32463291e-01 -4.26380010e-03 0. -1.59901306e-02 0. 0. 0. 0. 0.
      0. 8.64826664e-02 -4.36743349e-03 -1.55787915e-01 -8.60029235e-02
      -2.37385005e-01 -2.42017344e-01 -2.80598607e-02 -1.07232206e-01 0.
      5.05775273e-01 0. 0. 0. 0. 0. 0. 1.56428322e-01 -3.58514279e-01
      -4.33396995e-01 -1.09185554e-01 -8.73052031e-02 1.11643523e-01
      2.64758766e-01 4.25613105e-01 0. -2.38454148e-01 0. 0. 0. 0. 0. 0.
      3.45524877e-01 -2.63285995e-01 -3.32969457e-01 -5.78975528e-02
      -1.92182720e-01 5.98339885e-02 2.51548916e-01 3.71319860e-01 0.
      3.81489575e-01 0. 0. 0. 0. 0. 0.</_>
    <_>
      1.69226110e-01 3.99874836e-01 2.53096849e-01 -5.93567371e-01
      -1.45444557e-01 -6.37774989e-02 -7.90510476e-02 3.28014225e-01
      -3.79470760e-19 1.10179238e-01 0. 0. 0. 0. 0. 0. -2.20913775e-02
      1.95853338e-01 6.08517788e-02 -5.78944630e-04 -3.20728868e-01
      2.11354300e-01 1.07308909e-01 2.55347520e-01 0. -2.10159525e-01 0.
      0. 0. 0. 0. 0. -2.13408872e-01 -8.16828944e-03 -1.31393209e-01
      5.92409551e-01 -4.96013194e-01 4.86486077e-01 2.93668926e-01
      1.82680756e-01 0. 6.95565104e-01 0. 0. 0. 0. 0. 0. -2.25637734e-01
      -1.39694661e-01 -1.16451696e-01 5.75694084e-01 6.56073466e-02
      5.56685686e-01 4.51534748e-01 1.17214352e-01 0. 4.26902354e-01 0.
      0. 0. 0. 0. 0. -2.14019239e-01 -1.65307969e-01 -1.83815777e-01
      1.25135586e-01 1.50709763e-01 3.18117827e-01 3.60907376e-01
      1.79869786e-01 0. -7.99018368e-02 0. 0. 0. 0. 0. 0.
      -2.02400699e-01 -1.90921277e-01 -2.51179904e-01 -3.25422913e-01
      2.35812157e-01 7.95501694e-02 2.70279974e-01 2.42525190e-01 0.
      9.39641535e-01 0. 0. 0. 0. 0. 0. 3.96247745e-01 2.31822789e-01
      -5.47443509e-01 -5.48141956e-01 -2.55557626e-01 7.75916949e-02
      -1.99052781e-01 9.39810276e-02 0. 1.75875843e-01 0. 0. 0. 0. 0. 0.
      5.84746361e-01 1.37617260e-01 -3.39313120e-01 -2.79626697e-01
      -7.80145302e-02 1.26126081e-01 -2.06829339e-01 -2.55757030e-02 0.
      5.21759093e-01 0. 0. 0. 0. 0. 0.</_>
    <_>
      7.24316984e-02 4.17439044e-01 6.16934150e-02 -4.61250335e-01
      3.39569837e-01 1.66435018e-01 1.52751237e-01 4.12847877e-01
      -1.62630326e-19 2.27829784e-01 0. 0. 0. 0. 0. 0. 5.69401458e-02
      3.42850000e-01 1.71968952e-01 -8.75045285e-02 -2.94466689e-02
      3.75202149e-01 1.37865081e-01 3.72092903e-01 0. -2.01819867e-01 0.
      0. 0. 0. 0. 0. 4.14486043e-02 2.68260866e-01 2.82244563e-01
      2.86241084e-01 -3.98463219e-01 5.83969355e-01 1.22978956e-01
      3.31337869e-01 0. -7.69518137e-01 0. 0. 0. 0. 0. 0. 2.07437705e-02
      2.53144056e-01 -1.95763305e-01 -2.50261761e-02 -5.35386682e-01
      2.14474738e-01 3.34512800e-01 1.95686415e-01 0. -7.29541481e-02 0.
      0. 0. 0. 0. 0. 1.86594538e-02 2.09358647e-01 -4.55045134e-01
      -2.85244465e-01 -5.01563311e-01 9.38944072e-02 2.34829336e-01
      1.80433452e-01 0. 5.24596334e-01 0. 0. 0. 0. 0. 0. 1.65751539e-02
      1.65573210e-01 -7.14326978e-01 -5.45462847e-01 -4.67739791e-01
      -2.66857501e-02 1.35145754e-01 1.65180430e-01 0. 1.25094414e-01 0.
      0. 0. 0. 0. 0. -3.08486604e-04 -2.04803690e-01 -7.77345717e-01
      -2.31389686e-01 -4.16030288e-01 -2.15362087e-01 -1.05285414e-01
      2.78169870e-01 0. 2.26460978e-01 0. 0. 0. 0. 0. 0. 9.73221362e-02
      -2.75807194e-02 -4.12224382e-01 -2.34814566e-02 -2.12716963e-02
      3.24419886e-02 -1.74746394e-01 3.45349759e-01 0. 7.49022722e-01 0.
      0. 0. 0. 0. 0.</_>
    <_>
      -7.82960504e-02 -1.19239286e-01 1.61293149e-01 -3.13846469e-02
      3.42535347e-01 2.65615672e-01 -7.74903819e-02 6.43334508e-01
      -3.52365706e-19 6.24819100e-01 0. 0. 0. 0. 0. 0. -2.39217833e-01
      -4.10207137e-02 4.91495840e-02 1.24271423e-01 1.61511958e-01
      2.83621520e-01 -4.89670299e-02 -6.21917099e-03 0. -7.65347257e-02
      0. 0. 0. 0. 0. 0. -4.00139570e-01 3.71977761e-02 -6.29939809e-02
      2.79927522e-01 -1.95114389e-02 3.01627368e-01 -2.04435997e-02
      -6.55772865e-01 0. 4.94938910e-01 0. 0. 0. 0. 0. 0.
      -2.80527890e-01 2.33169809e-01 -5.97616583e-02 -1.68118387e-01
      -1.93340510e-01 1.78557038e-01 6.96963212e-03 -5.70924222e-01 0.
      -8.85378756e-03 0. 0. 0. 0. 0. 0. -1.68977827e-01 1.44942239e-01
      -8.41540024e-02 -2.16994435e-01 -1.65348813e-01 1.32650658e-02
      1.71203520e-02 -3.25393975e-01 0. 2.30168298e-01 0. 0. 0. 0. 0. 0.
      -5.74277788e-02 5.67146018e-02 -1.08546317e-01 -2.65870482e-01
      -1.37357071e-01 -1.52026951e-01 2.72710435e-02 -7.98637122e-02 0.
      -9.10740793e-02 0. 0. 0. 0. 0. 0. 3.92886192e-01 1.35721043e-01
      -1.07157581e-01 7.38883344e-03 -1.13736175e-01 -2.80693173e-01
      1.39673412e-01 4.64354783e-01 0. 1.44972399e-01 0. 0. 0. 0. 0. 0.
      7.09439993e-01 4.52241004e-01 2.04761550e-01 4.09082413e-01
      1.31233931e-01 5.46274986e-03 1.70918897e-01 5.55894315e-01 0.
      1.27188474e-01 0. 0. 0. 0. 0. 0.</_>
    <_>
      1.04703642e-01 5.15452623e-01 -1.27718583e-01 -2.81206876e-01
      -2.15376258e-01 -6.28429532e-01 -1.30487874e-01 6.24902129e-01
      6.50521303e-19 -1.53238788e-01 0. 0. 0. 0. 0. 0. 1.76388904e-01
      4.22542989e-01 3.99680762e-03 2.97539644e-02 -1.83465883e-01
      -2.74100125e-01 -1.21936157e-01 5.30142903e-01 0. -4.79659736e-02
      0. 0. 0. 0. 0. 0. 2.48074159e-01 3.29633266e-01 1.35712206e-01
      3.40714931e-01 -1.51555553e-01 8.02294090e-02 -1.13384433e-01
      4.35383588e-01 0. -1.24308370e-01 0. 0. 0. 0. 0. 0. 1.91889852e-01
      4.19627642e-03 -4.29632962e-01 1.15927912e-01 1.76740378e-01
      1.79894894e-01 1.60086602e-01 -1.66286435e-03 0. 4.93887901e-01 0.
      0. 0. 0. 0. 0. 1.34284496e-01 -1.61692768e-01 -4.40668941e-01
      -2.14937627e-01 2.63772815e-01 3.36398095e-01 1.75275728e-01
      -2.65281498e-02 0. 9.69892859e-01 0. 0. 0. 0. 0. 0. 7.66790509e-02
      -3.27581853e-01 -4.51705009e-01 -5.45803130e-01 3.50805283e-01
      4.92901385e-01 1.90464869e-01 -5.13934866e-02 0. 4.82043594e-01 0.
      0. 0. 0. 0. 0. -1.91327818e-02 -3.32187146e-01 -2.24511903e-02
      -5.03734291e-01 -9.74978693e-03 1.13114221e-02 -1.64623603e-01
      -1.97359607e-01 0. -5.72267354e-01 0. 0. 0. 0. 0. 0.
      1.28295785e-02 -3.38856459e-01 -9.51350853e-02 -4.21741337e-01
      -4.51740213e-02 3.95339094e-02 -1.29436523e-01 -2.44858801e-01 0.
      -3.14434230e-01 0. 0. 0. 0. 0. 0.</_>
    <_>
      1.16206676e-01 1.75952315e-01 -3.94736081e-01 -2.08937645e-01
      1.62811682e-01 -8.46726075e-02 -2.04292815e-02 3.31766516e-01
      -1.08420217e-19 1.33722574e-01 0. 0. 0. 0. 0. 0. 2.98505723e-02
      2.55816102e-01 -3.97446156e-01 1.42086610e-01 -4.71441671e-02
      1.83534190e-01 6.86439499e-02 3.10342520e-01 0. -2.58023500e-01 0.
      0. 0. 0. 0. 0. -5.65055199e-02 3.35679799e-01 -4.00156170e-01
      4.93110836e-01 -2.57099986e-01 4.51741159e-01 1.57717139e-01
      2.88918555e-01 0. 4.57560629e-01 0. 0. 0. 0. 0. 0. 5.17815575e-02
      3.23101401e-01 -1.31406948e-01 5.06158054e-01 -4.23491120e-01
      6.92407429e-01 7.62038901e-02 2.44336709e-01 0. 3.64472806e-01 0.
      0. 0. 0. 0. 0. -3.11488640e-02 1.88336521e-01 -1.07826896e-01
      2.20252901e-01 -2.84556866e-01 3.50905836e-01 1.62949730e-02
      2.31116742e-01 0. 9.08818543e-01 0. 0. 0. 0. 0. 0. -1.14079230e-01
      5.35715744e-02 -8.42469707e-02 -6.56522736e-02 -1.45622864e-01
      9.40437987e-03 -4.36139926e-02 2.17896655e-01 0. 4.34099972e-01 0.
      0. 0. 0. 0. 0. -4.91827816e-01 1.43464774e-01 -6.18413925e-01
      -4.91270460e-02 -8.94917622e-02 9.64236110e-02 -2.45950684e-01
      -4.31344733e-02 0. -6.09662235e-01 0. 0. 0. 0. 0. 0.
      -4.59653765e-01 -2.02243105e-01 -4.00634199e-01 -2.83339411e-01
      -2.31946141e-01 8.49325582e-02 -2.22124442e-01 -8.02444965e-02 0.
      1.16732550e+00 0. 0. 0. 0. 0. 0.</_>
    <_>
      1.26303971e-01 -8.26026499e-03 2.60426968e-01 -2.88063169e-01
      -2.04423711e-01 1.77801922e-01 3.33401114e-01 2.34042332e-01
      2.40557357e-19 1.00225222e+00 0. 0. 0. 0. 0. 0. 1.53949559e-01
      -9.52122733e-02 1.77821502e-01 -2.62902498e-01 -1.63871169e-01
      -3.65903676e-02 1.70937210e-01 2.10526764e-01 0. 4.54086035e-01 0.
      0. 0. 0. 0. 0. 1.81595117e-01 -1.82164282e-01 9.52160135e-02
      -2.37741768e-01 -1.23318627e-01 -2.50982642e-01 8.47330783e-03
      1.87011197e-01 0. 3.48448217e-01 0. 0. 0. 0. 0. 0. 1.42734483e-01
      -1.96276337e-01 6.43919930e-02 -1.52682289e-02 2.74209380e-01
      -1.74051240e-01 -3.75073642e-01 4.39735055e-02 0. -1.16541952e-01
      0. 0. 0. 0. 0. 0. 6.60270005e-02 -2.03233719e-01 7.21983165e-02
      1.12279095e-01 2.73842245e-01 -6.15139201e-04 -1.75339222e-01
      5.78190908e-02 0. 1.61063299e-01 0. 0. 0. 0. 0. 0. -1.06805032e-02
      -2.10190967e-01 8.00046548e-02 2.39826441e-01 2.73475081e-01
      1.72820985e-01 2.43952591e-02 7.16646463e-02 0. -7.28740245e-02 0.
      0. 0. 0. 0. 0. -2.71215409e-01 -1.02222733e-01 4.17749435e-01
      1.92820206e-01 1.26674712e-01 1.56778395e-01 7.67517835e-02
      -4.39780727e-02 0. 1.21926427e-01 0. 0. 0. 0. 0. 0.
      -4.42517817e-01 -1.25644341e-01 6.28725231e-01 4.17836577e-01
      3.51476461e-01 3.91537577e-01 8.00019875e-02 -3.69246155e-02 0.
      -2.58708447e-01 0. 0. 0. 0. 0. 0.</_>
    <_>
      -2.72852749e-01 -1.06042840e-01 2.79477268e-01 7.34184161e-02
      1.51953712e-01 4.49050516e-01 4.79485840e-01 9.86848585e-03
      2.16840434e-19 1.21701133e+00 0. 0. 0. 0. 0. 0. -1.69520497e-01
      -5.62030599e-02 3.50314707e-01 -1.53543234e-01 5.26919551e-02
      7.75373876e-02 9.76985171e-02 4.61252173e-03 0. 4.05873619e-02 0.
      0. 0. 0. 0. 0. -6.61883280e-02 -6.36328105e-03 4.21152115e-01
      -3.80504936e-01 -4.65698689e-02 -2.93975711e-01 -2.84088850e-01
      -6.43421547e-04 0. 1.10550269e-01 0. 0. 0. 0. 0. 0.
      -8.90666917e-02 5.51203154e-02 1.77460480e-02 -4.76368695e-01
      -1.61409482e-01 -2.54614025e-01 -3.11029196e-01 -1.08150788e-01 0.
      -2.28452548e-01 0. 0. 0. 0. 0. 0. -1.15019530e-01 2.07413435e-01
      1.11805566e-01 -4.88230765e-01 3.09143346e-02 1.12423137e-01
      -1.39566347e-01 -5.35230599e-02 0. 2.93672770e-01 0. 0. 0. 0. 0.
      0. -1.40972376e-01 3.59706700e-01 2.05865085e-01 -5.00092924e-01
      2.23238260e-01 4.79460210e-01 3.18964534e-02 1.10457256e-03 0.
      -9.36775446e-01 0. 0. 0. 0. 0. 0. -4.05410320e-01 1.70688868e-01
      1.54792726e-01 6.47022948e-02 -3.12969208e-01 4.03712958e-01
      -1.75663412e-01 -3.24649960e-01 0. 1.37740195e-01 0. 0. 0. 0. 0.
      0. -7.90264428e-01 -2.32447386e-01 4.30528909e-01 6.45750612e-02
      -3.40969622e-01 1.70186639e-01 -3.96639034e-02 -1.34870872e-01 0.
      -7.18027204e-02 0. 0. 0. 0. 0. 0.</_>
    <_>
      2.48492640e-02 -2.34545484e-01 -1.34794846e-01 -1.06498815e-01
      4.45844196e-02 1.02023132e-01 -5.03446460e-02 4.12507355e-02
      2.71050543e-20 4.41735595e-01 0. 0. 0. 0. 0. 0. -9.64547857e-04
      -2.15635300e-01 -1.03013895e-01 -1.41678944e-01 8.61037150e-02
      -1.88247710e-02 -5.44690117e-02 -5.47379963e-02 0. -3.46429348e-01
      0. 0. 0. 0. 0. 0. -2.67783664e-02 -1.96725115e-01 -7.12329671e-02
      -1.76859051e-01 1.27623022e-01 -1.39672667e-01 -5.85933700e-02
      -1.50726706e-01 0. 7.19636306e-02 0. 0. 0. 0. 0. 0.
      -7.90517405e-02 -2.39398461e-02 3.50083187e-02 -6.47020414e-02
      -7.10105849e-03 -2.84388214e-02 -7.08507448e-02 -8.02443698e-02 0.
      3.19781661e-01 0. 0. 0. 0. 0. 0. -8.44844729e-02 2.72055212e-02
      1.71303630e-01 2.71043461e-02 2.44352929e-02 8.83509368e-02
      -2.59246044e-02 -3.09795663e-02 0. 3.14160913e-01 0. 0. 0. 0. 0.
      0. -8.99172053e-02 7.83509165e-02 3.07599008e-01 1.18910722e-01
      5.59716448e-02 2.05140665e-01 1.90015286e-02 1.82852279e-02 0.
      1.72663406e-02 0. 0. 0. 0. 0. 0. -2.43514255e-02 3.06461811e-01
      5.83070338e-01 2.39978805e-01 -2.10477058e-02 1.30754396e-01
      -7.38703981e-02 -1.31934762e-01 0. 2.69384176e-01 0. 0. 0. 0. 0.
      0. -1.85292009e-02 3.84285986e-01 6.86461568e-01 3.42821121e-01
      2.73484737e-02 2.02307984e-01 2.26242915e-02 -1.17119275e-01 0.
      -1.15625061e-01 0. 0. 0. 0. 0. 0.</_>
    <_>
      2.03959182e-01 1.20433427e-01 4.14063893e-02 -3.48978937e-02
      2.69769449e-02 -6.56021759e-02 2.01553494e-01 2.50650913e-01
      4.87890978e-19 5.48616648e-01 0. 0. 0. 0. 0. 0. 2.23926738e-01
      -2.21567508e-02 1.07525505e-01 -1.67719170e-01 -2.61197053e-02
      -1.04305804e-01 -3.11293732e-03 2.17834339e-01 0. 1.50785789e-01
      0. 0. 0. 0. 0. 0. 2.43894279e-01 -1.64746925e-01 1.73644632e-01
      -3.00540417e-01 -7.92163163e-02 -1.43009424e-01 -2.07779378e-01
      1.85017765e-01 0. 1.88837215e-01 0. 0. 0. 0. 0. 0. 7.32283965e-02
      -3.30206901e-01 -1.33459359e-01 -3.68798114e-02 -1.00323275e-01
      -1.00618705e-01 -3.36949736e-01 3.64490016e-03 0. -3.18917751e-01
      0. 0. 0. 0. 0. 0. 2.69087106e-02 -2.43309006e-01 -2.38918420e-02
      1.13171088e-02 -4.09082556e-03 3.67611647e-02 -1.95169583e-01
      -1.45572806e-02 0. -2.63148807e-02 0. 0. 0. 0. 0. 0.
      -1.94110349e-02 -1.56411067e-01 8.56756866e-02 5.95140420e-02
      9.21416059e-02 1.74141034e-01 -5.33893816e-02 -3.27595063e-02 0.
      -2.48466179e-01 0. 0. 0. 0. 0. 0. -1.55563951e-01 -1.37426322e-02
      5.37886620e-01 4.28693071e-02 4.32707109e-02 1.32893518e-01
      -9.50503275e-02 -1.67625517e-01 0. 1.22128449e-01 0. 0. 0. 0. 0.
      0. -3.17044616e-01 3.58110182e-02 4.89132345e-01 3.62299643e-02
      1.59433886e-01 4.37916517e-01 -1.42758982e-02 -1.86177149e-01 0.
      -4.37135071e-01 0. 0. 0. 0. 0. 0.</_>
    <_>
      1.01020902e-01 -1.37045503e-01 -7.99002722e-02 -5.58308549e-02
      -5.64836431e-03 -3.41184158e-03 1.62906379e-01 2.37343237e-01
      -2.98155597e-19 4.52849746e-01 0. 0. 0. 0. 0. 0. 2.38863342e-02
      -1.51994675e-01 3.51490751e-02 -2.11485133e-01 1.29705481e-02
      -1.86286122e-02 1.81403589e-02 2.30671689e-01 0. 9.33596678e-03 0.
      0. 0. 0. 0. 0. -5.32482341e-02 -1.66943833e-01 1.50198400e-01
      -3.67139429e-01 3.15894745e-02 -3.38453688e-02 -1.26625687e-01
      2.24000156e-01 0. 1.44564286e-01 0. 0. 0. 0. 0. 0. -1.82859585e-01
      -7.12526441e-02 1.74461380e-01 8.84906501e-02 7.38735050e-02
      2.49856878e-02 -1.91161826e-01 9.24439058e-02 0. -1.43185526e-01
      0. 0. 0. 0. 0. 0. -2.16784701e-01 -2.93726157e-02 2.17008546e-01
      1.85644895e-01 1.59133896e-01 1.28964797e-01 -6.77253157e-02
      5.80465682e-02 0. 7.13246912e-02 0. 0. 0. 0. 0. 0. -2.50709802e-01
      1.25074619e-02 2.59555697e-01 2.82799125e-01 2.44394258e-01
      2.32943878e-01 5.57112284e-02 2.36492138e-02 0. -1.93079174e-01 0.
      0. 0. 0. 0. 0. -1.64653838e-01 2.02375531e-01 2.80122966e-01
      2.40045175e-01 9.22650471e-02 2.41013318e-01 2.86380909e-02
      -2.03661248e-01 0. 6.94604740e-02 0. 0. 0. 0. 0. 0.
      -2.35612556e-01 1.78739235e-01 3.88314068e-01 1.88958347e-01
      1.08559802e-01 3.01317036e-01 5.16706295e-02 -1.96661428e-01 0.
      1.27054993e-02 0. 0. 0. 0. 0. 0.</_>
    <_>
      -7.49350011e-01 -4.10887182e-01 -2.39812374e-01 1.10173620e-01
      2.88019478e-02 -3.03079098e-01 1.19415149e-01 -4.41888645e-02
      6.50521303e-19 3.76561671e-01 0. 0. 0. 0. 0. 0. -4.59912390e-01
      -1.79081514e-01 8.08193013e-02 1.08118847e-01 -2.69314587e-01
      -2.90140450e-01 5.33024669e-02 2.35469779e-03 0. 6.46461472e-02 0.
      0. 0. 0. 0. 0. -1.70474783e-01 5.27240783e-02 4.01450992e-01
      1.06063940e-01 -5.67431092e-01 -2.77201831e-01 -1.28101772e-02
      4.88982610e-02 0. -1.47514939e-01 0. 0. 0. 0. 0. 0.
      -2.74697065e-01 3.10414851e-01 1.50497049e-01 -4.80514884e-01
      -3.19292486e-01 -7.96828747e-01 1.05265580e-01 -9.83590558e-02 0.
      -2.68713236e-01 0. 0. 0. 0. 0. 0. -2.61365443e-01 2.22710237e-01
      8.85826275e-02 -3.56807739e-01 -3.45998555e-01 -4.37405109e-01
      1.21471159e-01 -1.59425646e-01 0. 2.41748154e-01 0. 0. 0. 0. 0. 0.
      -2.48033807e-01 1.35005623e-01 2.66681500e-02 -2.33100653e-01
      -3.72704536e-01 -7.79815093e-02 1.37676626e-01 -2.20492214e-01 0.
      -1.75744131e-01 0. 0. 0. 0. 0. 0. -1.56855300e-01 -1.18626077e-02
      2.93687850e-01 2.68731266e-01 -9.21005085e-02 -1.08454220e-01
      2.09719554e-01 -2.54068285e-01 0. -4.07101512e-01 0. 0. 0. 0. 0.
      0. -1.31294623e-01 -9.29645523e-02 -2.21701145e-01 -1.84275284e-01
      -4.61471260e-01 -5.25543272e-01 1.15912162e-01 -1.88799471e-01 0.
      -4.76819694e-01 0. 0. 0. 0. 0. 0.</_>
    <_>
      -5.55457234e-01 -6.83956385e-01 2.69452557e-02 -6.76919147e-02
      1.14133328e-01 6.90286756e-02 2.76549980e-02 5.20600891e-03
      -1.62630326e-19 3.22961837e-01 0. 0. 0. 0. 0. 0. -5.23883641e-01
      -1.97263598e-01 -2.97478903e-02 -1.27982140e-01 1.59270629e-01
      8.81155655e-02 6.95897192e-02 -2.31288671e-01 0. -1.17648542e-01
      0. 0. 0. 0. 0. 0. -4.92310047e-01 2.89429128e-01 -8.64410475e-02
      -1.88272357e-01 2.04407960e-01 1.07202455e-01 1.11524455e-01
      -4.67783362e-01 0. -3.23390625e-02 0. 0. 0. 0. 0. 0.
      -1.62854254e-01 5.84550500e-01 -5.62063828e-02 -4.32811260e-01
      -2.31429398e-01 -1.37548745e-01 -1.14328511e-01 -2.15089381e-01 0.
      1.45048071e-02 0. 0. 0. 0. 0. 0. 6.98874751e-03 4.46996272e-01
      -1.12927385e-01 -2.62785137e-01 -2.37067029e-01 -1.40684694e-01
      -1.92084327e-01 -2.62299389e-01 0. -1.35649936e-02 0. 0. 0. 0. 0.
      0. 1.76831767e-01 3.09441954e-01 -1.69648349e-01 -9.27589983e-02
      -2.42704645e-01 -1.43820703e-01 -2.69840211e-01 -3.09509426e-01 0.
      1.31571800e-01 0. 0. 0. 0. 0. 0. 3.44737083e-01 1.32832244e-01
      2.12481529e-01 1.54624894e-01 7.85792023e-02 -3.06243718e-01
      4.76814173e-02 2.97891572e-02 0. 8.16346481e-02 0. 0. 0. 0. 0. 0.
      3.99383694e-01 2.46584907e-01 1.98810458e-01 2.14997694e-01
      8.32428634e-02 -3.11049551e-01 2.19904810e-01 1.93019226e-01 0.
      -1.71143159e-01 0. 0. 0. 0. 0. 0.</_>
    <_>
      3.31710987e-02 4.03971612e-01 -3.63271356e-01 2.52979279e-01
      1.96242526e-01 -6.12492740e-01 -1.73417911e-01 1.14260957e-01
      -2.16840434e-19 2.61536211e-01 0. 0. 0. 0. 0. 0. 2.34467715e-01
      3.20371538e-01 1.52461976e-01 -9.99438614e-02 7.71566108e-02
      -4.43196088e-01 -2.04953387e-01 1.00838073e-01 0. -3.73903126e-01
      0. 0. 0. 0. 0. 0. 4.35764343e-01 2.36771449e-01 6.68195307e-01
      -4.52867001e-01 -4.19293493e-02 -2.73899406e-01 -2.36488834e-01
      8.74151886e-02 0. -6.02159977e-01 0. 0. 0. 0. 0. 0. 2.05424607e-01
      -8.66600424e-02 -1.49899513e-01 -3.14386599e-02 -2.53189832e-01
      -1.90376148e-01 -2.15991009e-02 -7.46712983e-02 0. -4.67871100e-01
      0. 0. 0. 0. 0. 0. 1.62792522e-02 -3.59624065e-02 -4.64239828e-02
      -1.23135738e-01 1.35985599e-03 7.04143271e-02 4.42226939e-02
      -1.04093008e-01 0. 6.14665627e-01 0. 0. 0. 0. 0. 0.
      -1.72866210e-01 1.47351427e-02 5.70515469e-02 -2.14832872e-01
      2.55909473e-01 3.31204742e-01 1.10044517e-01 -1.33514792e-01 0.
      -2.63079584e-01 0. 0. 0. 0. 0. 0. -5.74567735e-01 -1.28199339e-01
      6.67756438e-01 -2.28681013e-01 5.08674204e-01 -2.02236727e-01
      -2.18460411e-01 -1.02319941e-01 0. -7.11627901e-01 0. 0. 0. 0. 0.
      0. -7.14457572e-01 -7.01906979e-02 9.78254750e-02 -6.21986628e-01
      1.91682339e-01 8.17479789e-02 -1.25890642e-01 -1.94435008e-02 0.
      -5.85437834e-01 0. 0. 0. 0. 0. 0.</_>
    <_>
      -1.64265662e-01 -2.68058747e-01 -8.64319146e-01 3.61463368e-01
      2.96754479e-01 -2.11046845e-01 3.56508642e-01 2.48630121e-01
      5.42101086e-19 6.79606199e-02 0. 0. 0. 0. 0. 0. 1.40642878e-02
      8.27400535e-02 -3.12857896e-01 -8.21908265e-02 2.35314801e-01
      -9.58916470e-02 9.26543251e-02 3.88836324e-01 0. 6.44347891e-02 0.
      0. 0. 0. 0. 0. 1.92394316e-01 4.33538914e-01 2.38603324e-01
      -5.25845051e-01 1.73875093e-01 1.92636084e-02 -1.71200052e-01
      5.29042542e-01 0. 4.18791175e-01 0. 0. 0. 0. 0. 0. 1.28491104e-01
      2.31845990e-01 3.00372303e-01 -1.27369747e-01 -5.30089319e-01
      3.91030312e-03 -3.63736898e-01 2.77009875e-01 0. -9.82244432e-01
      0. 0. 0. 0. 0. 0. -9.27602574e-02 1.29551172e-01 3.18988889e-01
      1.03476584e-01 -3.77548099e-01 2.20055804e-02 -3.04416806e-01
      1.36515126e-01 0. 6.62321568e-01 0. 0. 0. 0. 0. 0. -3.14011544e-01
      2.72562131e-02 3.37605268e-01 3.34322810e-01 -2.25007012e-01
      4.01007794e-02 -2.45096609e-01 -3.97960516e-03 0. -1.06263053e+00
      0. 0. 0. 0. 0. 0. -4.65277642e-01 2.76918501e-01 8.97862837e-02
      3.53005499e-01 2.12574527e-01 3.25772822e-01 1.71899453e-01
      -1.43551484e-01 0. -8.51074994e-01 0. 0. 0. 0. 0. 0.
      -5.65858841e-01 4.68117744e-02 -9.26767886e-02 -6.65193573e-02
      -1.92786381e-01 2.30026737e-01 2.04807669e-01 -3.71618606e-02 0.
      4.81292695e-01 0. 0. 0. 0. 0. 0.</_>
    <_>
      -2.90927827e-01 -9.45775956e-02 1.25449836e-01 -4.14411306e-01
      -3.48314583e-01 1.64874212e-03 -4.95856404e-01 -7.75576979e-02
      -2.84603070e-19 4.97817546e-01 0. 0. 0. 0. 0. 0. -1.54205412e-01
      6.65200129e-02 -6.21245205e-02 -3.26822996e-01 -1.28714610e-02
      2.27993593e-01 -1.85132757e-01 -3.64578873e-01 0. -2.71090686e-01
      0. 0. 0. 0. 0. 0. -1.74829736e-02 2.27617636e-01 -2.49698833e-01
      -2.39234507e-01 3.22571725e-01 4.54338431e-01 1.25590876e-01
      -6.51600063e-01 0. -6.77350312e-02 0. 0. 0. 0. 0. 0.
      1.49056479e-01 2.18025789e-01 -1.10606374e-02 -6.41345931e-03
      3.16697121e-01 2.53526747e-01 1.68087155e-01 -3.92193407e-01 0.
      5.49787097e-02 0. 0. 0. 0. 0. 0. 3.35501507e-02 -1.29816219e-01
      -8.80485177e-02 -2.02457104e-02 1.34040818e-01 6.24150911e-04
      -7.19923433e-03 -3.93800139e-01 0. 7.27136433e-02 0. 0. 0. 0. 0.
      0. -8.19561630e-02 -4.77658212e-01 -1.65036380e-01 -3.40778939e-02
      -4.86156009e-02 -2.52278566e-01 -1.82485655e-01 -3.95406842e-01 0.
      1.07248545e+00 0. 0. 0. 0. 0. 0. 1.51547655e-01 -3.92672606e-02
      2.12600380e-01 2.58088768e-01 9.57970042e-03 -1.99151374e-02
      8.01352859e-02 7.32809901e-02 0. 4.71884273e-02 0. 0. 0. 0. 0. 0.
      4.75261152e-01 3.42152417e-01 5.15352190e-01 5.42386591e-01
      2.30408818e-01 3.70992690e-01 5.75724602e-01 3.30875695e-01 0.
      1.87415853e-01 0. 0. 0. 0. 0. 0.</_>
    <_>
      1.81425661e-01 2.97332793e-01 3.90296787e-01 1.64824650e-01
      -1.24284752e-01 -5.37709668e-02 -9.24636871e-02 5.12500666e-02
      5.42101086e-19 -3.81883204e-01 0. 0. 0. 0. 0. 0. 2.08245814e-01
      2.15634361e-01 2.89585084e-01 1.32491142e-01 1.39022902e-01
      -1.22579955e-01 9.17120650e-02 -1.02574304e-01 0. -4.81992960e-01
      0. 0. 0. 0. 0. 0. 2.35065997e-01 1.33935958e-01 1.88873366e-01
      1.00157768e-01 4.02330577e-01 -1.91388905e-01 2.75887847e-01
      -2.56398708e-01 0. -3.34737241e-01 0. 0. 0. 0. 0. 0.
      2.32852116e-01 -4.02425051e-01 -2.30529889e-01 6.72644317e-01
      2.04880208e-01 2.53511935e-01 -1.99122414e-01 1.01424322e-01 0.
      -2.63106167e-01 0. 0. 0. 0. 0. 0. 1.50796488e-01 -4.74309772e-01
      -8.54956061e-02 4.03604418e-01 4.83116478e-01 6.56564608e-02
      -2.68728554e-01 1.16307199e-01 0. 1.08722998e-02 0. 0. 0. 0. 0. 0.
      6.87408075e-02 -5.46194553e-01 5.95387146e-02 1.34564564e-01
      7.61352658e-01 -1.22199044e-01 -3.38334590e-01 1.31190062e-01 0.
      2.49741197e-01 0. 0. 0. 0. 0. 0. -1.16695888e-01 2.25965425e-01
      6.69424295e-01 -2.43621379e-01 4.47164416e-01 1.57390535e-01
      -4.54693437e-01 2.32413877e-05 0. -1.46819174e-01 0. 0. 0. 0. 0.
      0. -2.12215587e-01 4.30536211e-01 6.82157636e-01 -2.86173403e-01
      3.39024752e-01 6.53623462e-01 -1.89238474e-01 -3.58427987e-02 0.
      -4.46312755e-01 0. 0. 0. 0. 0. 0.</_>
    <_>
      3.79366755e-01 1.73303381e-01 -2.92635441e-01 -2.46055901e-01
      -2.70810992e-01 -3.06061469e-02 7.14300573e-02 -4.81235655e-03
      -3.65918233e-19 7.13727623e-02 0. 0. 0. 0. 0. 0. 2.92023242e-01
      7.92952701e-02 -3.36311489e-01 -2.84306735e-01 8.74164850e-02
      -1.16241373e-01 -5.21487091e-03 9.47581232e-03 0. -2.64598578e-02
      0. 0. 0. 0. 0. 0. 2.04679787e-01 -1.47127770e-02 -3.79987508e-01
      -3.22557509e-01 4.45644021e-01 -2.01876551e-01 -8.18598196e-02
      2.37639807e-02 0. 1.36997059e-01 0. 0. 0. 0. 0. 0. 4.61891331e-02
      -1.44052640e-01 -1.20671540e-01 4.94914591e-01 2.60927081e-01
      5.81950307e-01 -4.72478300e-01 5.12267612e-02 0. 1.71859581e-02 0.
      0. 0. 0. 0. 0. -4.27426100e-02 -1.69118404e-01 2.07770579e-02
      4.74593878e-01 3.80181968e-01 3.89443815e-01 -3.51317763e-01
      2.64464486e-02 0. 4.27071542e-01 0. 0. 0. 0. 0. 0. -1.31674379e-01
      -1.94184139e-01 1.62225738e-01 4.54273105e-01 4.99436617e-01
      1.96937278e-01 -2.30157241e-01 1.66612340e-03 0. -2.71715634e-02
      0. 0. 0. 0. 0. 0. -1.36789367e-01 3.17786872e-01 2.69600540e-01
      1.69754356e-01 4.16762173e-01 4.14769977e-01 4.95445013e-01
      -2.54839496e-03 0. 1.26603454e-01 0. 0. 0. 0. 0. 0.
      -1.20522179e-01 1.59666434e-01 4.99853820e-01 3.25688869e-01
      3.59814346e-01 5.68472922e-01 8.36338460e-01 9.75449979e-02 0.
      8.14625084e-01 0. 0. 0. 0. 0. 0.</_>
    <_>
      1.83139026e-01 3.44615459e-01 5.10606542e-02 2.36544251e-01
      -1.04892537e-01 -2.08221689e-01 3.50040011e-02 9.08231363e-02
      -1.89735380e-19 -6.00713193e-02 0. 0. 0. 0. 0. 0. 2.43153214e-01
      2.17074648e-01 1.10115759e-01 9.15140957e-02 -8.08882639e-02
      -2.00113624e-01 -4.59730253e-02 1.72911093e-01 0. 1.70304850e-01
      0. 0. 0. 0. 0. 0. 3.03167403e-01 8.95338506e-02 1.69170856e-01
      -5.35160415e-02 -5.68840094e-02 -1.92005560e-01 -1.26950070e-01
      2.54999042e-01 0. -8.88039768e-02 0. 0. 0. 0. 0. 0. 2.23230347e-01
      -1.47733167e-01 -3.15445140e-02 -8.50391686e-02 7.66142085e-02
      -4.32021767e-02 -6.03067921e-03 1.58125639e-01 0. -3.71935278e-01
      0. 0. 0. 0. 0. 0. 1.50288060e-01 -2.02155814e-01 -1.12485746e-02
      -9.90933254e-02 1.76832512e-01 8.58007669e-02 6.34174794e-02
      1.46010280e-01 0. 1.14793278e-01 0. 0. 0. 0. 0. 0. 7.73457363e-02
      -2.56578445e-01 9.04732011e-03 -1.13147467e-01 2.77050823e-01
      2.14803725e-01 1.32865652e-01 1.33894891e-01 0. 1.39877275e-01 0.
      0. 0. 0. 0. 0. -1.69263780e-01 -2.35513330e-01 1.28412858e-01
      -1.01303957e-01 2.15555057e-01 1.87300846e-01 -1.04562394e-01
      -2.70815212e-02 0. -3.57759535e-01 0. 0. 0. 0. 0. 0.
      -3.56353551e-01 -3.54544431e-01 -3.70472781e-02 -1.81844607e-01
      8.83425251e-02 9.58147496e-02 -1.84562370e-01 -1.74972624e-01 0.
      -2.29512811e-01 0. 0. 0. 0. 0. 0.</_>
    <_>
      3.51193428e-01 3.70466053e-01 -1.66573346e-01 1.42092243e-01
      -2.00943306e-01 -4.50279973e-02 2.12908253e-01 7.42584541e-02
      2.16840434e-19 -3.96761149e-01 0. 0. 0. 0. 0. 0. 2.47544572e-01
      1.56668678e-01 -1.21717758e-01 6.97984174e-02 -1.63050860e-01
      -1.37951240e-01 8.31076652e-02 2.95328945e-01 0. 3.53125721e-01 0.
      0. 0. 0. 0. 0. 1.43895745e-01 -5.71286641e-02 -7.68622011e-02
      -2.49543739e-03 -1.25158414e-01 -2.30874464e-01 -4.66929339e-02
      5.16399443e-01 0. 1.98260576e-01 0. 0. 0. 0. 0. 0. 6.90811872e-02
      -3.90935272e-01 6.19792193e-02 5.02499752e-02 6.67068213e-02
      1.22507595e-01 -1.45770326e-01 3.99023861e-01 0. -4.35647935e-01
      0. 0. 0. 0. 0. 0. 1.58384927e-02 -2.27863565e-01 1.21231653e-01
      1.97695079e-03 1.79273993e-01 1.26227230e-01 -1.98727511e-02
      3.71926099e-01 0. 4.10919756e-01 0. 0. 0. 0. 0. 0. -3.74042094e-02
      -6.47918358e-02 1.80483982e-01 -4.62961011e-02 2.91841120e-01
      1.29946858e-01 1.06024891e-01 3.44828278e-01 0. -7.75808871e-01 0.
      0. 0. 0. 0. 0. -3.48209977e-01 3.19185585e-01 9.09622088e-02
      -3.59193794e-02 2.01729268e-01 3.84038121e-01 8.61115605e-02
      -1.14804201e-01 0. -4.82669324e-01 0. 0. 0. 0. 0. 0.
      -4.95455891e-01 1.43128280e-02 7.74401948e-02 -1.22858919e-01
      2.58013327e-02 2.98466027e-01 -7.83994868e-02 -3.20896834e-01 0.
      2.28191987e-01 0. 0. 0. 0. 0. 0.</_>
    <_>
      -3.27976905e-02 -2.38776743e-01 -2.49119043e-01 8.41705874e-02
      2.77355969e-01 4.87839490e-01 -9.12473202e-02 4.39545745e-03
      1.62630326e-19 -5.75798415e-02 0. 0. 0. 0. 0. 0. -6.69338927e-02
      -8.63431841e-02 -2.13433400e-01 3.49955037e-02 2.85470307e-01
      4.47639883e-01 -1.02616459e-01 -6.58941921e-03 0. -2.13990867e-01
      0. 0. 0. 0. 0. 0. -1.01070091e-01 6.60905316e-02 -1.77747756e-01
      -1.41796228e-02 2.93584675e-01 4.07440305e-01 -1.13985635e-01
      -1.75742935e-02 0. 2.92090088e-01 0. 0. 0. 0. 0. 0.
      -1.79459333e-01 4.53487486e-01 4.66646999e-01 3.88426594e-02
      -3.41211021e-01 3.64248872e-01 -2.29777262e-01 4.55935784e-02 0.
      -5.32344356e-02 0. 0. 0. 0. 0. 0. -2.58874387e-01 3.77053887e-01
      4.81107086e-01 2.34594136e-01 -3.28561038e-01 1.01584807e-01
      -2.52648145e-01 3.74795161e-02 0. -2.00032458e-01 0. 0. 0. 0. 0.
      0. -3.38289320e-01 3.00620317e-01 4.95567054e-01 4.30345595e-01
      -3.15911114e-01 -1.61079288e-01 -2.75519073e-01 2.93654744e-02 0.
      -3.12011093e-01 0. 0. 0. 0. 0. 0. -5.54035425e-01 4.34624106e-01
      -4.23334032e-01 5.71936190e-01 -5.96263744e-02 3.14011008e-01
      1.35583162e-01 -2.77511794e-02 0. 6.58839941e-01 0. 0. 0. 0. 0. 0.
      -5.50584435e-01 3.24906737e-01 5.98155111e-02 4.60347205e-01
      -2.57053077e-01 1.48599982e-01 1.75683632e-01 2.32299939e-02 0.
      1.10582995e+00 0. 0. 0. 0. 0. 0.</_></support_vectors>
  <decision_functions>
    <_>
      <sv_count>1</sv_count>
      <rho>1.2616003830029101e+00</rho>
      <alpha>
        1.</alpha>
      <index>
        0</index></_>
    <_>
      <sv_count>1</sv_count>
      <rho>3.1561047845375305e+00</rho>
      <alpha>
        1.</alpha>
      <index>
        1</index></_>
    <_>
      <sv_count>1</sv_count>
      <rho>1.9674087780342375e-01</rho>
      <alpha>
        1.</alpha>
      <index>
        2</index></_>
    <_>
      <sv_count>1</sv_count>
      <rho>-9.0142415232039108e-01</rho>
      <alpha>
        1.</alpha>
      <index>
        3</index></_>
    <_>
      <sv_count>1</sv_count>
      <rho>3.4240659123466917e+00</rho>
      <alpha>
        1.</alpha>
      <index>
        4</index></_>
    <_>
      <sv_count>1</sv_count>
      <rho>-1.2796611257086643e+00</rho>
      <alpha>
        1.</alpha>
      <index>
        5</index></_>
    <_>
      <sv_count>1</sv_count>
      <rho>8.9218673110437907e-01</rho>
      <alpha>
        1.</alpha>
      <index>
        6</index></_>
    <_>
      <sv_count>1</sv_count>
      <rho>1.2268738971714646e+00</rho>
      <alpha>
        1.</alpha>
      <index>
        7</index></_>
    <_>
      <sv_count>1</sv_count>
      <rho>5.8786226794548355e+00</rho>
      <alpha>
        1.</alpha>
      <index>
        8</index></_>
    <_>
      <sv_count>1</sv_count>
      <rho>4.2016031691624528e-01</rho>
      <alpha>
        1.</alpha>
      <index>
        9</index></_>
    <_>
      <sv_count>1</sv_count>
      <rho>-2.1835033729792728e+00</rho>
      <alpha>
        1.</alpha>
      <index>
        10</index></_>
    <_>
      <sv_count>1</sv_count>
      <rho>-2.4341640159950368e+00</rho>
      <alpha>
        1.</alpha>
      <index>
        11</index></_>
    <_>
      <sv_count>1</sv_count>
      <rho>1.0711066648091379e+00</rho>
      <alpha>
        1.</alpha>
      <index>
        12</index></_>
    <_>
      <sv_count>1</sv_count>
      <rho>-1.7071216434068712e+00</rho>
      <alpha>
        1.</alpha>
      <index>
        13</index></_>
    <_>
      <sv_count>1</sv_count>
      <rho>2.3067275342662752e-01</rho>
      <alpha>
        1.</alpha>
      <index>
        14</index></_>
    <_>
      <sv_count>1</sv_count>
      <rho>-1.6996232462877252e+00</rho>
      <alpha>
        1.</alpha>
      <index>
        15</index></_>
    <_>
      <sv_count>1</sv_count>
      <rho>-6.0456916983819986e-01</rho>
      <alpha>
        1.</alpha>
      <index>
        16</index></_>
    <_>
      <sv_count>1</sv_count>
      <rho>-2.4107257260989328e+00</rho>
      <alpha>
        1.</alpha>
      <index>
        17</index></_>
    <_>
      <sv_count>1</sv_count>
      <rho>-2.1423593886305197e+00</rho>
      <alpha>
        1.</alpha>
      <index>
        18</index></_>
    <_>
      <sv_count>1</sv_count>
      <rho>-1.1640016446024717e+00</rho>
      <alpha>
        1.</alpha>
      <index>
        19</index></_>
    <_>
      <sv_count>1</sv_count>
      <rho>-3.6909687104428950e+00</rho>
      <alpha>
        1.</alpha>
      <index>
        20</index></_>
    <_>
      <sv_count>1</sv_count>
      <rho>-2.8252460610731411e+00</rho>
      <alpha>
        1.</alpha>
      <index>
        21</index></_>
    <_>
      <sv_count>1</sv_count>
      <rho>-3.2301788800153504e+00</rho>
      <alpha>
        1.</alpha>
      <index>
        22</index></_>
    <_>
      <sv_count>1</sv_count>
      <rho>-3.0957137048860384e-01</rho>
      <alpha>
        1.</alpha>
      <index>
        23</index></_>
    <_>
      <sv_count>1</sv_count>
      <rho>1.1044249720541885e+00</rho>
      <alpha>
        1.</alpha>
      <index>
        24</index></_>
    <_>
      <sv_count>1</sv_count>
      <rho>2.4252117923467185e+00</rho>
      <alpha>
        1.</alpha>
      <index>
        25</index></_>
    <_>
      <sv_count>1</sv_count>
      <rho>-5.1690575853411269e-01</rho>
      <alpha>
        1.</alpha>
      <index>
        26</index></_>
    <_>
      <sv_count>1</sv_count>
      <rho>1.4423259584358177e+00</rho>
      <alpha>
        1.</alpha>
      <index>
        27</index></_>
    <_>
      <sv_count>1</sv_count>
      <rho>-1.1506278295586052e+00</rho>
      <alpha>
        1.</alpha>
      <index>
        28</index></_>
    <_>
      <sv_count>1</sv_count>
      <rho>1.1260010604072863e+00</rho>
      <alpha>
        1.</alpha>
      <index>
        29</index></_>
    <_>
      <sv_count>1</sv_count>
      <rho>2.7417173345046812e+00</rho>
      <alpha>
        1.</alpha>
      <index>
        30</index></_>
    <_>
      <sv_count>1</sv_count>
      <rho>-3.9283928742782664e-01</rho>
      <alpha>
        1.</alpha>
      <index>
        31</index></_>
    <_>
      <sv_count>1</sv_count>
      <rho>1.7606929779025606e+00</rho>
      <alpha>
        1.</alpha>
      <index>
        32</index></_>
    <_>
      <sv_count>1</sv_count>
      <rho>-7.8306197691625959e-02</rho>
      <alpha>
        1.</alpha>
      <index>
        33</index></_>
    <_>
      <sv_count>1</sv_count>
      <rho>2.0300888500242849e+00</rho>
      <alpha>
        1.</alpha>
      <index>
        34</index></_>
    <_>
      <sv_count>1</sv_count>
      <rho>-3.7627138129703144e+00</rho>
      <alpha>
        1.</alpha>
      <index>
        35</index></_>
    <_>
      <sv_count>1</sv_count>
      <rho>-9.3581004921120592e-01</rho>
      <alpha>
        1.</alpha>
      <index>
        36</index></_>
    <_>
      <sv_count>1</sv_count>
      <rho>-2.7026004260569363e+00</rho>
      <alpha>
        1.</alpha>
      <index>
        37</index></_>
    <_>
      <sv_count>1</sv_count>
      <rho>-6.9953030423077378e-01</rho>
      <alpha>
        1.</alpha>
      <index>
        38</index></_>
    <_>
      <sv_count>1</sv_count>
      <rho>1.5630178263905365e+00</rho>
      <alpha>
        1.</alpha>
      <index>
        39</index></_>
    <_>
      <sv_count>1</sv_count>
      <rho>2.1182501442850628e+00</rho>
      <alpha>
        1.</alpha>
      <index>
        40</index></_>
    <_>
      <sv_count>1</sv_count>
      <rho>3.8665337061875409e+00</rho>
      <alpha>
        1.</alpha>
      <index>
        41</index></_>
    <_>
      <sv_count>1</sv_count>
      <rho>-2.4067411949509532e-01</rho>
      <alpha>
        1.</alpha>
      <index>
        42</index></_>
    <_>
      <sv_count>1</sv_count>
      <rho>4.6337811800499118e-01</rho>
      <alpha>
        1.</alpha>
      <index>
        43</index></_>
    <_>
      <sv_count>1</sv_count>
      <rho>2.7867176408944228e+00</rho>
      <alpha>
        1.</alpha>
      <index>
        44</index></_></decision_functions></my_svm>
</opencv_storage>
